digraph Tree {
node [shape=box, style="filled, rounded", color="black", fontname="helvetica"] ;
edge [fontname="helvetica"] ;
0 [label=<NAME_INCOME_TYPE_Working &le; 0.5<br/>gini = 0.5<br/>samples = 285646<br/>value = [226034.0, 226263.0]>, fillcolor="#ffffff"] ;
1 [label=<EXT_SOURCE_2 &le; 0.488<br/>gini = 0.493<br/>samples = 125464<br/>value = [111441, 87280]>, fillcolor="#f9e4d4"] ;
0 -> 1 [labeldistance=2.5, labelangle=45, headlabel="True"] ;
2 [label=<FLAG_DOCUMENT_6 &le; 0.5<br/>gini = 0.491<br/>samples = 52088<br/>value = [35763.0, 46653.0]>, fillcolor="#d1e8f9"] ;
1 -> 2 ;
3 [label=<EXT_SOURCE_3 &le; 0.538<br/>gini = 0.487<br/>samples = 42858<br/>value = [28526, 39321]>, fillcolor="#c9e4f8"] ;
2 -> 3 ;
4 [label=<ORGANIZATION_TYPE_XNA &le; 0.5<br/>gini = 0.458<br/>samples = 31319<br/>value = [17507, 31914]>, fillcolor="#a6d3f3"] ;
3 -> 4 ;
5 [label=<EXT_SOURCE_2 &le; 0.218<br/>gini = 0.446<br/>samples = 24525<br/>value = [13010, 25711]>, fillcolor="#9dcff2"] ;
4 -> 5 ;
6 [label=<NAME_INCOME_TYPE_State servant &le; 0.5<br/>gini = 0.371<br/>samples = 8800<br/>value = [3407, 10439]>, fillcolor="#7abded"] ;
5 -> 6 ;
7 [label=<FLAG_DOCUMENT_3 &le; 0.5<br/>gini = 0.355<br/>samples = 6983<br/>value = [2533, 8456]>, fillcolor="#74baed"] ;
6 -> 7 ;
8 [label=<HOUR_APPR_PROCESS_START &le; 4.5<br/>gini = 0.411<br/>samples = 1492<br/>value = [673, 1651]>, fillcolor="#8ac5f0"] ;
7 -> 8 ;
9 [label=<FLAG_EMAIL &le; 0.5<br/>gini = 0.412<br/>samples = 18<br/>value = [22, 9]>, fillcolor="#f0b58a"] ;
8 -> 9 ;
10 [label=<gini = 0.18<br/>samples = 11<br/>value = [18, 2]>, fillcolor="#e88f4f"] ;
9 -> 10 ;
11 [label=<gini = 0.463<br/>samples = 7<br/>value = [4, 7]>, fillcolor="#aad5f4"] ;
9 -> 11 ;
12 [label=<NAME_EDUCATION_TYPE_Higher education &le; 0.5<br/>gini = 0.407<br/>samples = 1474<br/>value = [651, 1642]>, fillcolor="#88c4ef"] ;
8 -> 12 ;
13 [label=<gini = 0.375<br/>samples = 1140<br/>value = [443, 1327]>, fillcolor="#7bbeee"] ;
12 -> 13 ;
14 [label=<gini = 0.479<br/>samples = 334<br/>value = [208, 315]>, fillcolor="#bcdef6"] ;
12 -> 14 ;
15 [label=<REG_CITY_NOT_LIVE_CITY &le; 0.5<br/>gini = 0.337<br/>samples = 5491<br/>value = [1860, 6805]>, fillcolor="#6fb8ec"] ;
7 -> 15 ;
16 [label=<FLAG_OWN_REALTY_Y &le; 0.5<br/>gini = 0.355<br/>samples = 4443<br/>value = [1622, 5400]>, fillcolor="#74baed"] ;
15 -> 16 ;
17 [label=<gini = 0.411<br/>samples = 1243<br/>value = [580, 1424]>, fillcolor="#8ac5f0"] ;
16 -> 17 ;
18 [label=<gini = 0.329<br/>samples = 3200<br/>value = [1042, 3976]>, fillcolor="#6db7ec"] ;
16 -> 18 ;
19 [label=<OBS_60_CNT_SOCIAL_CIRCLE &le; 10.5<br/>gini = 0.248<br/>samples = 1048<br/>value = [238.0, 1405.0]>, fillcolor="#5baee9"] ;
15 -> 19 ;
20 [label=<gini = 0.241<br/>samples = 1045<br/>value = [229, 1405]>, fillcolor="#59ade9"] ;
19 -> 20 ;
21 [label=<gini = 0.0<br/>samples = 3<br/>value = [9, 0]>, fillcolor="#e58139"] ;
19 -> 21 ;
22 [label=<DEF_60_CNT_SOCIAL_CIRCLE &le; 1.5<br/>gini = 0.425<br/>samples = 1817<br/>value = [874.0, 1983.0]>, fillcolor="#90c8f0"] ;
6 -> 22 ;
23 [label=<HOUR_APPR_PROCESS_START &le; 2.5<br/>gini = 0.43<br/>samples = 1759<br/>value = [870, 1905]>, fillcolor="#93caf1"] ;
22 -> 23 ;
24 [label=<gini = 0.0<br/>samples = 4<br/>value = [7, 0]>, fillcolor="#e58139"] ;
23 -> 24 ;
25 [label=<AMT_INCOME_TOTAL &le; 84600.0<br/>gini = 0.429<br/>samples = 1755<br/>value = [863.0, 1905.0]>, fillcolor="#93c9f1"] ;
23 -> 25 ;
26 [label=<gini = 0.318<br/>samples = 348<br/>value = [106, 429]>, fillcolor="#6ab5eb"] ;
25 -> 26 ;
27 [label=<gini = 0.448<br/>samples = 1407<br/>value = [757, 1476]>, fillcolor="#9fcff2"] ;
25 -> 27 ;
28 [label=<AMT_GOODS_PRICE &le; 276750.0<br/>gini = 0.093<br/>samples = 58<br/>value = [4, 78]>, fillcolor="#43a2e6"] ;
22 -> 28 ;
29 [label=<DAYS_REGISTRATION &le; -3458.5<br/>gini = 0.202<br/>samples = 27<br/>value = [4, 31]>, fillcolor="#53aae8"] ;
28 -> 29 ;
30 [label=<gini = 0.494<br/>samples = 7<br/>value = [4, 5]>, fillcolor="#d7ebfa"] ;
29 -> 30 ;
31 [label=<gini = 0.0<br/>samples = 20<br/>value = [0, 26]>, fillcolor="#399de5"] ;
29 -> 31 ;
32 [label=<gini = 0.0<br/>samples = 31<br/>value = [0, 47]>, fillcolor="#399de5"] ;
28 -> 32 ;
33 [label=<NAME_CONTRACT_TYPE_Revolving loans &le; 0.5<br/>gini = 0.474<br/>samples = 15725<br/>value = [9603.0, 15272.0]>, fillcolor="#b6dbf5"] ;
5 -> 33 ;
34 [label=<EXT_SOURCE_3 &le; 0.266<br/>gini = 0.469<br/>samples = 14351<br/>value = [8568, 14211]>, fillcolor="#b0d8f5"] ;
33 -> 34 ;
35 [label=<AMT_CREDIT &le; 192978.0<br/>gini = 0.362<br/>samples = 4255<br/>value = [1606, 5150]>, fillcolor="#77bced"] ;
34 -> 35 ;
36 [label=<CNT_FAM_MEMBERS &le; 3.5<br/>gini = 0.484<br/>samples = 199<br/>value = [133, 190]>, fillcolor="#c4e2f7"] ;
35 -> 36 ;
37 [label=<gini = 0.473<br/>samples = 191<br/>value = [118, 190]>, fillcolor="#b4daf5"] ;
36 -> 37 ;
38 [label=<gini = 0.0<br/>samples = 8<br/>value = [15, 0]>, fillcolor="#e58139"] ;
36 -> 38 ;
39 [label=<FLAG_DOCUMENT_18 &le; 0.5<br/>gini = 0.353<br/>samples = 4056<br/>value = [1473, 4960]>, fillcolor="#74baed"] ;
35 -> 39 ;
40 [label=<gini = 0.349<br/>samples = 4016<br/>value = [1433, 4926]>, fillcolor="#73baed"] ;
39 -> 40 ;
41 [label=<gini = 0.497<br/>samples = 40<br/>value = [40, 34]>, fillcolor="#fbece1"] ;
39 -> 41 ;
42 [label=<HOUR_APPR_PROCESS_START &le; 16.5<br/>gini = 0.491<br/>samples = 10096<br/>value = [6962, 9061]>, fillcolor="#d1e8f9"] ;
34 -> 42 ;
43 [label=<EXT_SOURCE_2 &le; 0.362<br/>gini = 0.489<br/>samples = 9327<br/>value = [6301, 8509]>, fillcolor="#cce6f8"] ;
42 -> 43 ;
44 [label=<gini = 0.476<br/>samples = 4458<br/>value = [2789, 4334]>, fillcolor="#b8dcf6"] ;
43 -> 44 ;
45 [label=<gini = 0.496<br/>samples = 4869<br/>value = [3512, 4175]>, fillcolor="#e0effb"] ;
43 -> 45 ;
46 [label=<WEEKDAY_APPR_PROCESS_START_TUESDAY &le; 0.5<br/>gini = 0.496<br/>samples = 769<br/>value = [661, 552]>, fillcolor="#fbeade"] ;
42 -> 46 ;
47 [label=<gini = 0.499<br/>samples = 658<br/>value = [535, 502]>, fillcolor="#fdf7f3"] ;
46 -> 47 ;
48 [label=<gini = 0.407<br/>samples = 111<br/>value = [126.0, 50.0]>, fillcolor="#efb388"] ;
46 -> 48 ;
49 [label=<DAYS_BIRTH &le; -20060.5<br/>gini = 0.5<br/>samples = 1374<br/>value = [1035, 1061]>, fillcolor="#fafdfe"] ;
33 -> 49 ;
50 [label=<DAYS_EMPLOYED &le; -108.5<br/>gini = 0.232<br/>samples = 60<br/>value = [84, 13]>, fillcolor="#e99458"] ;
49 -> 50 ;
51 [label=<OBS_30_CNT_SOCIAL_CIRCLE &le; 7.0<br/>gini = 0.124<br/>samples = 54<br/>value = [84, 6]>, fillcolor="#e78a47"] ;
50 -> 51 ;
52 [label=<gini = 0.07<br/>samples = 49<br/>value = [80, 3]>, fillcolor="#e68640"] ;
51 -> 52 ;
53 [label=<gini = 0.49<br/>samples = 5<br/>value = [4, 3]>, fillcolor="#f8e0ce"] ;
51 -> 53 ;
54 [label=<gini = 0.0<br/>samples = 6<br/>value = [0, 7]>, fillcolor="#399de5"] ;
50 -> 54 ;
55 [label=<AMT_INCOME_TOTAL &le; 161325.0<br/>gini = 0.499<br/>samples = 1314<br/>value = [951, 1048]>, fillcolor="#edf6fd"] ;
49 -> 55 ;
56 [label=<CNT_FAM_MEMBERS &le; 2.5<br/>gini = 0.491<br/>samples = 936<br/>value = [617, 813]>, fillcolor="#cfe7f9"] ;
55 -> 56 ;
57 [label=<gini = 0.477<br/>samples = 673<br/>value = [401, 619]>, fillcolor="#b9dcf6"] ;
56 -> 57 ;
58 [label=<gini = 0.499<br/>samples = 263<br/>value = [216, 194]>, fillcolor="#fcf2eb"] ;
56 -> 58 ;
59 [label=<FLAG_OWN_CAR &le; 0.5<br/>gini = 0.485<br/>samples = 378<br/>value = [334, 235]>, fillcolor="#f7dac4"] ;
55 -> 59 ;
60 [label=<gini = 0.498<br/>samples = 239<br/>value = [165, 185]>, fillcolor="#eaf4fc"] ;
59 -> 60 ;
61 [label=<gini = 0.352<br/>samples = 139<br/>value = [169, 50]>, fillcolor="#eda674"] ;
59 -> 61 ;
62 [label=<DAYS_ID_PUBLISH &le; -4078.5<br/>gini = 0.487<br/>samples = 6794<br/>value = [4497.0, 6203.0]>, fillcolor="#c9e4f8"] ;
4 -> 62 ;
63 [label=<AMT_REQ_CREDIT_BUREAU_WEEK &le; 0.5<br/>gini = 0.499<br/>samples = 3413<br/>value = [2557.0, 2831.0]>, fillcolor="#ecf6fc"] ;
62 -> 63 ;
64 [label=<EXT_SOURCE_3 &le; 0.355<br/>gini = 0.499<br/>samples = 3299<br/>value = [2492.0, 2725.0]>, fillcolor="#eef7fd"] ;
63 -> 64 ;
65 [label=<EXT_SOURCE_3 &le; 0.011<br/>gini = 0.444<br/>samples = 988<br/>value = [510.0, 1024.0]>, fillcolor="#9ccef2"] ;
64 -> 65 ;
66 [label=<gini = 0.0<br/>samples = 9<br/>value = [17, 0]>, fillcolor="#e58139"] ;
65 -> 66 ;
67 [label=<AMT_REQ_CREDIT_BUREAU_QRT &le; 1.5<br/>gini = 0.439<br/>samples = 979<br/>value = [493.0, 1024.0]>, fillcolor="#98ccf2"] ;
65 -> 67 ;
68 [label=<gini = 0.446<br/>samples = 909<br/>value = [472, 932]>, fillcolor="#9dcff2"] ;
67 -> 68 ;
69 [label=<gini = 0.303<br/>samples = 70<br/>value = [21, 92]>, fillcolor="#66b3eb"] ;
67 -> 69 ;
70 [label=<NAME_INCOME_TYPE_Unemployed &le; 0.5<br/>gini = 0.497<br/>samples = 2311<br/>value = [1982, 1701]>, fillcolor="#fbede3"] ;
64 -> 70 ;
71 [label=<REGION_POPULATION_RELATIVE &le; 0.041<br/>gini = 0.497<br/>samples = 2304<br/>value = [1982.0, 1691.0]>, fillcolor="#fbede2"] ;
70 -> 71 ;
72 [label=<gini = 0.498<br/>samples = 2263<br/>value = [1917, 1685]>, fillcolor="#fcf0e7"] ;
71 -> 72 ;
73 [label=<gini = 0.155<br/>samples = 41<br/>value = [65, 6]>, fillcolor="#e78d4b"] ;
71 -> 73 ;
74 [label=<gini = 0.0<br/>samples = 7<br/>value = [0, 10]>, fillcolor="#399de5"] ;
70 -> 74 ;
75 [label=<DAYS_REGISTRATION &le; -5385.0<br/>gini = 0.471<br/>samples = 114<br/>value = [65, 106]>, fillcolor="#b2d9f5"] ;
63 -> 75 ;
76 [label=<SK_ID_CURR &le; 207171.0<br/>gini = 0.473<br/>samples = 45<br/>value = [40, 25]>, fillcolor="#f5d0b5"] ;
75 -> 76 ;
77 [label=<DAYS_BIRTH &le; -24273.0<br/>gini = 0.137<br/>samples = 19<br/>value = [2, 25]>, fillcolor="#49a5e7"] ;
76 -> 77 ;
78 [label=<gini = 0.0<br/>samples = 1<br/>value = [1, 0]>, fillcolor="#e58139"] ;
77 -> 78 ;
79 [label=<gini = 0.074<br/>samples = 18<br/>value = [1, 25]>, fillcolor="#41a1e6"] ;
77 -> 79 ;
80 [label=<gini = 0.0<br/>samples = 26<br/>value = [38, 0]>, fillcolor="#e58139"] ;
76 -> 80 ;
81 [label=<AMT_ANNUITY &le; 39028.5<br/>gini = 0.36<br/>samples = 69<br/>value = [25, 81]>, fillcolor="#76bbed"] ;
75 -> 81 ;
82 [label=<SK_ID_CURR &le; 352358.0<br/>gini = 0.308<br/>samples = 65<br/>value = [19, 81]>, fillcolor="#67b4eb"] ;
81 -> 82 ;
83 [label=<gini = 0.397<br/>samples = 41<br/>value = [18, 48]>, fillcolor="#83c2ef"] ;
82 -> 83 ;
84 [label=<gini = 0.057<br/>samples = 24<br/>value = [1, 33]>, fillcolor="#3fa0e6"] ;
82 -> 84 ;
85 [label=<gini = 0.0<br/>samples = 4<br/>value = [6, 0]>, fillcolor="#e58139"] ;
81 -> 85 ;
86 [label=<AMT_ANNUITY &le; 24252.75<br/>gini = 0.464<br/>samples = 3381<br/>value = [1940, 3372]>, fillcolor="#abd5f4"] ;
62 -> 86 ;
87 [label=<EXT_SOURCE_2 &le; 0.262<br/>gini = 0.484<br/>samples = 1920<br/>value = [1242, 1773]>, fillcolor="#c4e2f7"] ;
86 -> 87 ;
88 [label=<DAYS_REGISTRATION &le; -4238.0<br/>gini = 0.451<br/>samples = 926<br/>value = [504, 963]>, fillcolor="#a1d0f3"] ;
87 -> 88 ;
89 [label=<CODE_GENDER &le; 0.5<br/>gini = 0.479<br/>samples = 484<br/>value = [307, 464]>, fillcolor="#bcdef6"] ;
88 -> 89 ;
90 [label=<gini = 0.494<br/>samples = 338<br/>value = [241, 300]>, fillcolor="#d8ecfa"] ;
89 -> 90 ;
91 [label=<gini = 0.409<br/>samples = 146<br/>value = [66, 164]>, fillcolor="#89c4ef"] ;
89 -> 91 ;
92 [label=<AMT_ANNUITY &le; 6689.25<br/>gini = 0.406<br/>samples = 442<br/>value = [197, 499]>, fillcolor="#87c4ef"] ;
88 -> 92 ;
93 [label=<gini = 0.0<br/>samples = 10<br/>value = [14, 0]>, fillcolor="#e58139"] ;
92 -> 93 ;
94 [label=<gini = 0.393<br/>samples = 432<br/>value = [183, 499]>, fillcolor="#82c1ef"] ;
92 -> 94 ;
95 [label=<DAYS_BIRTH &le; -22499.5<br/>gini = 0.499<br/>samples = 994<br/>value = [738.0, 810.0]>, fillcolor="#edf6fd"] ;
87 -> 95 ;
96 [label=<AMT_GOODS_PRICE &le; 213750.0<br/>gini = 0.454<br/>samples = 292<br/>value = [164, 307]>, fillcolor="#a3d1f3"] ;
95 -> 96 ;
97 [label=<gini = 0.495<br/>samples = 85<br/>value = [75, 62]>, fillcolor="#fae9dd"] ;
96 -> 97 ;
98 [label=<gini = 0.391<br/>samples = 207<br/>value = [89.0, 245.0]>, fillcolor="#81c1ee"] ;
96 -> 98 ;
99 [label=<DAYS_REGISTRATION &le; -702.0<br/>gini = 0.498<br/>samples = 702<br/>value = [574, 503]>, fillcolor="#fcefe7"] ;
95 -> 99 ;
100 [label=<gini = 0.5<br/>samples = 662<br/>value = [523, 493]>, fillcolor="#fef8f4"] ;
99 -> 100 ;
101 [label=<gini = 0.274<br/>samples = 40<br/>value = [51, 10]>, fillcolor="#ea9a60"] ;
99 -> 101 ;
102 [label=<AMT_GOODS_PRICE &le; 452250.0<br/>gini = 0.423<br/>samples = 1461<br/>value = [698, 1599]>, fillcolor="#8fc8f0"] ;
86 -> 102 ;
103 [label=<AMT_INCOME_TOTAL &le; 258750.0<br/>gini = 0.311<br/>samples = 364<br/>value = [106, 444]>, fillcolor="#68b4eb"] ;
102 -> 103 ;
104 [label=<DAYS_BIRTH &le; -20398.0<br/>gini = 0.274<br/>samples = 335<br/>value = [82, 419]>, fillcolor="#60b0ea"] ;
103 -> 104 ;
105 [label=<gini = 0.378<br/>samples = 126<br/>value = [47, 139]>, fillcolor="#7cbeee"] ;
104 -> 105 ;
106 [label=<gini = 0.198<br/>samples = 209<br/>value = [35, 280]>, fillcolor="#52a9e8"] ;
104 -> 106 ;
107 [label=<AMT_ANNUITY &le; 36407.25<br/>gini = 0.5<br/>samples = 29<br/>value = [24, 25]>, fillcolor="#f7fbfe"] ;
103 -> 107 ;
108 [label=<gini = 0.0<br/>samples = 9<br/>value = [18, 0]>, fillcolor="#e58139"] ;
107 -> 108 ;
109 [label=<gini = 0.312<br/>samples = 20<br/>value = [6, 25]>, fillcolor="#69b5eb"] ;
107 -> 109 ;
110 [label=<NAME_CONTRACT_TYPE_Revolving loans &le; 0.5<br/>gini = 0.448<br/>samples = 1097<br/>value = [592, 1155]>, fillcolor="#9ecff2"] ;
102 -> 110 ;
111 [label=<AMT_INCOME_TOTAL &le; 104625.0<br/>gini = 0.441<br/>samples = 1069<br/>value = [558, 1145]>, fillcolor="#99cdf2"] ;
110 -> 111 ;
112 [label=<gini = 0.353<br/>samples = 224<br/>value = [80, 270]>, fillcolor="#74baed"] ;
111 -> 112 ;
113 [label=<gini = 0.457<br/>samples = 845<br/>value = [478, 875]>, fillcolor="#a5d3f3"] ;
111 -> 113 ;
114 [label=<SK_ID_CURR &le; 346528.0<br/>gini = 0.351<br/>samples = 28<br/>value = [34, 10]>, fillcolor="#eda673"] ;
110 -> 114 ;
115 [label=<gini = 0.0<br/>samples = 19<br/>value = [31, 0]>, fillcolor="#e58139"] ;
114 -> 115 ;
116 [label=<gini = 0.355<br/>samples = 9<br/>value = [3, 10]>, fillcolor="#74baed"] ;
114 -> 116 ;
117 [label=<AMT_CREDIT &le; 284328.0<br/>gini = 0.481<br/>samples = 11539<br/>value = [11019.0, 7407.0]>, fillcolor="#f6d6be"] ;
3 -> 117 ;
118 [label=<WEEKDAY_APPR_PROCESS_START_WEDNESDAY &le; 0.5<br/>gini = 0.442<br/>samples = 3103<br/>value = [3319, 1632]>, fillcolor="#f2bf9a"] ;
117 -> 118 ;
119 [label=<NAME_INCOME_TYPE_Commercial associate &le; 0.5<br/>gini = 0.424<br/>samples = 2503<br/>value = [2771, 1214]>, fillcolor="#f0b890"] ;
118 -> 119 ;
120 [label=<DAYS_BIRTH &le; -9504.5<br/>gini = 0.384<br/>samples = 1396<br/>value = [1645, 576]>, fillcolor="#eead7e"] ;
119 -> 120 ;
121 [label=<AMT_REQ_CREDIT_BUREAU_QRT &le; 0.5<br/>gini = 0.374<br/>samples = 1352<br/>value = [1611, 533]>, fillcolor="#eeab7b"] ;
120 -> 121 ;
122 [label=<SK_ID_CURR &le; 309427.0<br/>gini = 0.34<br/>samples = 1057<br/>value = [1310, 363]>, fillcolor="#eca470"] ;
121 -> 122 ;
123 [label=<gini = 0.396<br/>samples = 660<br/>value = [764, 286]>, fillcolor="#efb083"] ;
122 -> 123 ;
124 [label=<gini = 0.217<br/>samples = 397<br/>value = [546, 77]>, fillcolor="#e99355"] ;
122 -> 124 ;
125 [label=<EXT_SOURCE_2 &le; 0.071<br/>gini = 0.461<br/>samples = 295<br/>value = [301, 170]>, fillcolor="#f4c8a9"] ;
121 -> 125 ;
126 [label=<gini = 0.401<br/>samples = 25<br/>value = [10, 26]>, fillcolor="#85c3ef"] ;
125 -> 126 ;
127 [label=<gini = 0.443<br/>samples = 270<br/>value = [291, 144]>, fillcolor="#f2bf9b"] ;
125 -> 127 ;
128 [label=<REG_CITY_NOT_WORK_CITY &le; 0.5<br/>gini = 0.493<br/>samples = 44<br/>value = [34, 43]>, fillcolor="#d6eafa"] ;
120 -> 128 ;
129 [label=<gini = 0.0<br/>samples = 12<br/>value = [23, 0]>, fillcolor="#e58139"] ;
128 -> 129 ;
130 [label=<DAYS_LAST_PHONE_CHANGE &le; -751.5<br/>gini = 0.324<br/>samples = 32<br/>value = [11, 43]>, fillcolor="#6cb6ec"] ;
128 -> 130 ;
131 [label=<gini = 0.133<br/>samples = 25<br/>value = [3, 39]>, fillcolor="#48a5e7"] ;
130 -> 131 ;
132 [label=<gini = 0.444<br/>samples = 7<br/>value = [8, 4]>, fillcolor="#f2c09c"] ;
130 -> 132 ;
133 [label=<AMT_CREDIT &le; 254556.0<br/>gini = 0.462<br/>samples = 1107<br/>value = [1126, 638]>, fillcolor="#f4c8a9"] ;
119 -> 133 ;
134 [label=<DAYS_EMPLOYED &le; -262.5<br/>gini = 0.438<br/>samples = 756<br/>value = [797, 383]>, fillcolor="#f1be98"] ;
133 -> 134 ;
135 [label=<NAME_FAMILY_STATUS_Single / not married &le; 0.5<br/>gini = 0.455<br/>samples = 691<br/>value = [696.0, 374.0]>, fillcolor="#f3c5a3"] ;
134 -> 135 ;
136 [label=<gini = 0.462<br/>samples = 547<br/>value = [539, 306]>, fillcolor="#f4c9a9"] ;
135 -> 136 ;
137 [label=<gini = 0.422<br/>samples = 144<br/>value = [157, 68]>, fillcolor="#f0b88f"] ;
135 -> 137 ;
138 [label=<AMT_ANNUITY &le; 24052.5<br/>gini = 0.15<br/>samples = 65<br/>value = [101, 9]>, fillcolor="#e78c4b"] ;
134 -> 138 ;
139 [label=<gini = 0.04<br/>samples = 59<br/>value = [97, 2]>, fillcolor="#e6843d"] ;
138 -> 139 ;
140 [label=<gini = 0.463<br/>samples = 6<br/>value = [4, 7]>, fillcolor="#aad5f4"] ;
138 -> 140 ;
141 [label=<NAME_CONTRACT_TYPE_Revolving loans &le; 0.5<br/>gini = 0.492<br/>samples = 351<br/>value = [329, 255]>, fillcolor="#f9e3d2"] ;
133 -> 141 ;
142 [label=<DAYS_BIRTH &le; -10981.5<br/>gini = 0.499<br/>samples = 273<br/>value = [211.0, 228.0]>, fillcolor="#f0f8fd"] ;
141 -> 142 ;
143 [label=<gini = 0.485<br/>samples = 179<br/>value = [168, 118]>, fillcolor="#f7dac4"] ;
142 -> 143 ;
144 [label=<gini = 0.404<br/>samples = 94<br/>value = [43, 110]>, fillcolor="#86c3ef"] ;
142 -> 144 ;
145 [label=<REGION_POPULATION_RELATIVE &le; 0.024<br/>gini = 0.303<br/>samples = 78<br/>value = [118, 27]>, fillcolor="#eb9e66"] ;
141 -> 145 ;
146 [label=<gini = 0.079<br/>samples = 43<br/>value = [70, 3]>, fillcolor="#e68641"] ;
145 -> 146 ;
147 [label=<gini = 0.444<br/>samples = 35<br/>value = [48, 24]>, fillcolor="#f2c09c"] ;
145 -> 147 ;
148 [label=<FLAG_PHONE &le; 0.5<br/>gini = 0.491<br/>samples = 600<br/>value = [548, 418]>, fillcolor="#f9e1d0"] ;
118 -> 148 ;
149 [label=<REG_CITY_NOT_WORK_CITY &le; 0.5<br/>gini = 0.499<br/>samples = 468<br/>value = [391.0, 361.0]>, fillcolor="#fdf5f0"] ;
148 -> 149 ;
150 [label=<OBS_60_CNT_SOCIAL_CIRCLE &le; 2.5<br/>gini = 0.489<br/>samples = 365<br/>value = [326.0, 243.0]>, fillcolor="#f8dfcd"] ;
149 -> 150 ;
151 [label=<AMT_ANNUITY &le; 25389.0<br/>gini = 0.497<br/>samples = 301<br/>value = [248, 213]>, fillcolor="#fbede3"] ;
150 -> 151 ;
152 [label=<gini = 0.499<br/>samples = 292<br/>value = [229.0, 213.0]>, fillcolor="#fdf6f1"] ;
151 -> 152 ;
153 [label=<gini = 0.0<br/>samples = 9<br/>value = [19, 0]>, fillcolor="#e58139"] ;
151 -> 153 ;
154 [label=<HOUR_APPR_PROCESS_START &le; 11.5<br/>gini = 0.401<br/>samples = 64<br/>value = [78, 30]>, fillcolor="#efb185"] ;
150 -> 154 ;
155 [label=<gini = 0.481<br/>samples = 42<br/>value = [40, 27]>, fillcolor="#f7d6bf"] ;
154 -> 155 ;
156 [label=<gini = 0.136<br/>samples = 22<br/>value = [38, 3]>, fillcolor="#e78b49"] ;
154 -> 156 ;
157 [label=<REG_REGION_NOT_WORK_REGION &le; 0.5<br/>gini = 0.458<br/>samples = 103<br/>value = [65.0, 118.0]>, fillcolor="#a6d3f3"] ;
149 -> 157 ;
158 [label=<NAME_HOUSING_TYPE_With parents &le; 0.5<br/>gini = 0.425<br/>samples = 94<br/>value = [52.0, 118.0]>, fillcolor="#90c8f0"] ;
157 -> 158 ;
159 [label=<gini = 0.443<br/>samples = 86<br/>value = [51.0, 103.0]>, fillcolor="#9bcef2"] ;
158 -> 159 ;
160 [label=<gini = 0.117<br/>samples = 8<br/>value = [1, 15]>, fillcolor="#46a4e7"] ;
158 -> 160 ;
161 [label=<gini = 0.0<br/>samples = 9<br/>value = [13, 0]>, fillcolor="#e58139"] ;
157 -> 161 ;
162 [label=<DAYS_ID_PUBLISH &le; -895.0<br/>gini = 0.391<br/>samples = 132<br/>value = [157.0, 57.0]>, fillcolor="#eeaf81"] ;
148 -> 162 ;
163 [label=<DAYS_REGISTRATION &le; -2606.0<br/>gini = 0.319<br/>samples = 114<br/>value = [149, 37]>, fillcolor="#eba06a"] ;
162 -> 163 ;
164 [label=<AMT_ANNUITY &le; 10098.0<br/>gini = 0.088<br/>samples = 69<br/>value = [104, 5]>, fillcolor="#e68743"] ;
163 -> 164 ;
165 [label=<gini = 0.293<br/>samples = 22<br/>value = [23, 5]>, fillcolor="#eb9c64"] ;
164 -> 165 ;
166 [label=<gini = 0.0<br/>samples = 47<br/>value = [81, 0]>, fillcolor="#e58139"] ;
164 -> 166 ;
167 [label=<AMT_ANNUITY &le; 15219.0<br/>gini = 0.486<br/>samples = 45<br/>value = [45, 32]>, fillcolor="#f7dbc6"] ;
163 -> 167 ;
168 [label=<gini = 0.325<br/>samples = 27<br/>value = [39, 10]>, fillcolor="#eca16c"] ;
167 -> 168 ;
169 [label=<gini = 0.337<br/>samples = 18<br/>value = [6, 22]>, fillcolor="#6fb8ec"] ;
167 -> 169 ;
170 [label=<SK_ID_CURR &le; 268413.0<br/>gini = 0.408<br/>samples = 18<br/>value = [8, 20]>, fillcolor="#88c4ef"] ;
162 -> 170 ;
171 [label=<gini = 0.0<br/>samples = 13<br/>value = [0, 20]>, fillcolor="#399de5"] ;
170 -> 171 ;
172 [label=<gini = 0.0<br/>samples = 5<br/>value = [8, 0]>, fillcolor="#e58139"] ;
170 -> 172 ;
173 [label=<REGION_RATING_CLIENT &le; 1.5<br/>gini = 0.49<br/>samples = 8436<br/>value = [7700, 5775]>, fillcolor="#f8e0ce"] ;
117 -> 173 ;
174 [label=<AMT_REQ_CREDIT_BUREAU_MON &le; 2.5<br/>gini = 0.464<br/>samples = 420<br/>value = [421, 243]>, fillcolor="#f4caab"] ;
173 -> 174 ;
175 [label=<AMT_ANNUITY &le; 31549.5<br/>gini = 0.472<br/>samples = 397<br/>value = [389.0, 241.0]>, fillcolor="#f5cfb4"] ;
174 -> 175 ;
176 [label=<NAME_EDUCATION_TYPE_Incomplete higher &le; 0.5<br/>gini = 0.499<br/>samples = 188<br/>value = [140, 150]>, fillcolor="#f2f8fd"] ;
175 -> 176 ;
177 [label=<OBS_60_CNT_SOCIAL_CIRCLE &le; 0.5<br/>gini = 0.499<br/>samples = 164<br/>value = [134, 124]>, fillcolor="#fdf6f0"] ;
176 -> 177 ;
178 [label=<gini = 0.437<br/>samples = 81<br/>value = [88, 42]>, fillcolor="#f1bd98"] ;
177 -> 178 ;
179 [label=<gini = 0.46<br/>samples = 83<br/>value = [46, 82]>, fillcolor="#a8d4f4"] ;
177 -> 179 ;
180 [label=<NAME_INCOME_TYPE_Commercial associate &le; 0.5<br/>gini = 0.305<br/>samples = 24<br/>value = [6, 26]>, fillcolor="#67b4eb"] ;
176 -> 180 ;
181 [label=<gini = 0.0<br/>samples = 2<br/>value = [2, 0]>, fillcolor="#e58139"] ;
180 -> 181 ;
182 [label=<gini = 0.231<br/>samples = 22<br/>value = [4, 26]>, fillcolor="#57ace9"] ;
180 -> 182 ;
183 [label=<NAME_FAMILY_STATUS_Widow &le; 0.5<br/>gini = 0.392<br/>samples = 209<br/>value = [249.0, 91.0]>, fillcolor="#efaf81"] ;
175 -> 183 ;
184 [label=<AMT_REQ_CREDIT_BUREAU_HOUR &le; 0.5<br/>gini = 0.327<br/>samples = 182<br/>value = [232, 60]>, fillcolor="#eca26c"] ;
183 -> 184 ;
185 [label=<gini = 0.298<br/>samples = 175<br/>value = [229, 51]>, fillcolor="#eb9d65"] ;
184 -> 185 ;
186 [label=<gini = 0.375<br/>samples = 7<br/>value = [3, 9]>, fillcolor="#7bbeee"] ;
184 -> 186 ;
187 [label=<ORGANIZATION_TYPE_Other &le; 0.5<br/>gini = 0.457<br/>samples = 27<br/>value = [17, 31]>, fillcolor="#a6d3f3"] ;
183 -> 187 ;
188 [label=<gini = 0.0<br/>samples = 3<br/>value = [7, 0]>, fillcolor="#e58139"] ;
187 -> 188 ;
189 [label=<gini = 0.369<br/>samples = 24<br/>value = [10, 31]>, fillcolor="#79bded"] ;
187 -> 189 ;
190 [label=<DAYS_ID_PUBLISH &le; -4094.5<br/>gini = 0.111<br/>samples = 23<br/>value = [32, 2]>, fillcolor="#e78945"] ;
174 -> 190 ;
191 [label=<CODE_GENDER &le; 0.5<br/>gini = 0.245<br/>samples = 11<br/>value = [12, 2]>, fillcolor="#e9965a"] ;
190 -> 191 ;
192 [label=<gini = 0.0<br/>samples = 7<br/>value = [10, 0]>, fillcolor="#e58139"] ;
191 -> 192 ;
193 [label=<DAYS_REGISTRATION &le; -6371.0<br/>gini = 0.5<br/>samples = 4<br/>value = [2, 2]>, fillcolor="#ffffff"] ;
191 -> 193 ;
194 [label=<gini = 0.0<br/>samples = 2<br/>value = [2, 0]>, fillcolor="#e58139"] ;
193 -> 194 ;
195 [label=<gini = 0.0<br/>samples = 2<br/>value = [0, 2]>, fillcolor="#399de5"] ;
193 -> 195 ;
196 [label=<gini = 0.0<br/>samples = 12<br/>value = [20, 0]>, fillcolor="#e58139"] ;
190 -> 196 ;
197 [label=<ORGANIZATION_TYPE_Self-employed &le; 0.5<br/>gini = 0.491<br/>samples = 8016<br/>value = [7279, 5532]>, fillcolor="#f9e1cf"] ;
173 -> 197 ;
198 [label=<CODE_GENDER &le; 0.5<br/>gini = 0.485<br/>samples = 7063<br/>value = [6611, 4674]>, fillcolor="#f7dac5"] ;
197 -> 198 ;
199 [label=<AMT_GOODS_PRICE &le; 1352250.0<br/>gini = 0.467<br/>samples = 4723<br/>value = [4769, 2816]>, fillcolor="#f4cbae"] ;
198 -> 199 ;
200 [label=<EXT_SOURCE_3 &le; 0.57<br/>gini = 0.47<br/>samples = 4575<br/>value = [4572, 2768]>, fillcolor="#f5cdb1"] ;
199 -> 200 ;
201 [label=<gini = 0.5<br/>samples = 764<br/>value = [585, 619]>, fillcolor="#f4fafe"] ;
200 -> 201 ;
202 [label=<gini = 0.455<br/>samples = 3811<br/>value = [3987, 2149]>, fillcolor="#f3c5a4"] ;
200 -> 202 ;
203 [label=<NAME_INCOME_TYPE_Commercial associate &le; 0.5<br/>gini = 0.315<br/>samples = 148<br/>value = [197, 48]>, fillcolor="#eba069"] ;
199 -> 203 ;
204 [label=<gini = 0.182<br/>samples = 79<br/>value = [115, 13]>, fillcolor="#e88f4f"] ;
203 -> 204 ;
205 [label=<gini = 0.419<br/>samples = 69<br/>value = [82, 35]>, fillcolor="#f0b78e"] ;
203 -> 205 ;
206 [label=<EXT_SOURCE_2 &le; 0.337<br/>gini = 0.5<br/>samples = 2340<br/>value = [1842, 1858]>, fillcolor="#fdfeff"] ;
198 -> 206 ;
207 [label=<AMT_INCOME_TOTAL &le; 110250.0<br/>gini = 0.487<br/>samples = 1467<br/>value = [968, 1336]>, fillcolor="#c8e4f8"] ;
206 -> 207 ;
208 [label=<gini = 0.452<br/>samples = 138<br/>value = [129, 68]>, fillcolor="#f3c3a1"] ;
207 -> 208 ;
209 [label=<gini = 0.479<br/>samples = 1329<br/>value = [839.0, 1268.0]>, fillcolor="#bcdef6"] ;
207 -> 209 ;
210 [label=<EXT_SOURCE_3 &le; 0.755<br/>gini = 0.468<br/>samples = 873<br/>value = [874, 522]>, fillcolor="#f5ccaf"] ;
206 -> 210 ;
211 [label=<gini = 0.483<br/>samples = 734<br/>value = [693, 476]>, fillcolor="#f7d8c1"] ;
210 -> 211 ;
212 [label=<gini = 0.323<br/>samples = 139<br/>value = [181, 46]>, fillcolor="#eca16b"] ;
210 -> 212 ;
213 [label=<AMT_ANNUITY &le; 17070.75<br/>gini = 0.492<br/>samples = 953<br/>value = [668, 858]>, fillcolor="#d3e9f9"] ;
197 -> 213 ;
214 [label=<AMT_GOODS_PRICE &le; 344250.0<br/>gini = 0.296<br/>samples = 52<br/>value = [77, 17]>, fillcolor="#eb9d65"] ;
213 -> 214 ;
215 [label=<gini = 0.0<br/>samples = 27<br/>value = [54, 0]>, fillcolor="#e58139"] ;
214 -> 215 ;
216 [label=<SK_ID_CURR &le; 114645.0<br/>gini = 0.489<br/>samples = 25<br/>value = [23, 17]>, fillcolor="#f8decb"] ;
214 -> 216 ;
217 [label=<gini = 0.105<br/>samples = 12<br/>value = [1, 17]>, fillcolor="#45a3e7"] ;
216 -> 217 ;
218 [label=<gini = 0.0<br/>samples = 13<br/>value = [22, 0]>, fillcolor="#e58139"] ;
216 -> 218 ;
219 [label=<NAME_FAMILY_STATUS_Single / not married &le; 0.5<br/>gini = 0.485<br/>samples = 901<br/>value = [591, 841]>, fillcolor="#c4e2f7"] ;
213 -> 219 ;
220 [label=<DAYS_REGISTRATION &le; -3422.0<br/>gini = 0.491<br/>samples = 761<br/>value = [523, 688]>, fillcolor="#d0e7f9"] ;
219 -> 220 ;
221 [label=<gini = 0.459<br/>samples = 502<br/>value = [279, 502]>, fillcolor="#a7d3f3"] ;
220 -> 221 ;
222 [label=<gini = 0.491<br/>samples = 259<br/>value = [244.0, 186.0]>, fillcolor="#f9e1d0"] ;
220 -> 222 ;
223 [label=<WEEKDAY_APPR_PROCESS_START_TUESDAY &le; 0.5<br/>gini = 0.426<br/>samples = 140<br/>value = [68, 153]>, fillcolor="#91c9f1"] ;
219 -> 223 ;
224 [label=<gini = 0.393<br/>samples = 124<br/>value = [53.0, 144.0]>, fillcolor="#82c1ef"] ;
223 -> 224 ;
225 [label=<gini = 0.469<br/>samples = 16<br/>value = [15, 9]>, fillcolor="#f5cdb0"] ;
223 -> 225 ;
226 [label=<HOUR_APPR_PROCESS_START &le; 7.5<br/>gini = 0.5<br/>samples = 9230<br/>value = [7237.0, 7332.0]>, fillcolor="#fcfeff"] ;
2 -> 226 ;
227 [label=<DAYS_BIRTH &le; -19420.5<br/>gini = 0.495<br/>samples = 1221<br/>value = [875, 1072]>, fillcolor="#dbedfa"] ;
226 -> 227 ;
228 [label=<DAYS_ID_PUBLISH &le; -4177.5<br/>gini = 0.499<br/>samples = 1092<br/>value = [832.0, 917.0]>, fillcolor="#edf6fd"] ;
227 -> 228 ;
229 [label=<DAYS_ID_PUBLISH &le; -4874.5<br/>gini = 0.478<br/>samples = 489<br/>value = [468, 307]>, fillcolor="#f6d4bb"] ;
228 -> 229 ;
230 [label=<OBS_60_CNT_SOCIAL_CIRCLE &le; 7.5<br/>gini = 0.38<br/>samples = 89<br/>value = [114, 39]>, fillcolor="#eeac7d"] ;
229 -> 230 ;
231 [label=<DAYS_REGISTRATION &le; -21.5<br/>gini = 0.307<br/>samples = 75<br/>value = [107, 25]>, fillcolor="#eb9e67"] ;
230 -> 231 ;
232 [label=<DAYS_BIRTH &le; -22321.0<br/>gini = 0.274<br/>samples = 73<br/>value = [107, 21]>, fillcolor="#ea9a60"] ;
231 -> 232 ;
233 [label=<gini = 0.095<br/>samples = 35<br/>value = [57, 3]>, fillcolor="#e68843"] ;
232 -> 233 ;
234 [label=<gini = 0.389<br/>samples = 38<br/>value = [50, 18]>, fillcolor="#eeae80"] ;
232 -> 234 ;
235 [label=<gini = 0.0<br/>samples = 2<br/>value = [0, 4]>, fillcolor="#399de5"] ;
231 -> 235 ;
236 [label=<DAYS_BIRTH &le; -22887.5<br/>gini = 0.444<br/>samples = 14<br/>value = [7, 14]>, fillcolor="#9ccef2"] ;
230 -> 236 ;
237 [label=<REGION_RATING_CLIENT &le; 2.5<br/>gini = 0.124<br/>samples = 10<br/>value = [1, 14]>, fillcolor="#47a4e7"] ;
236 -> 237 ;
238 [label=<gini = 0.0<br/>samples = 9<br/>value = [0, 14]>, fillcolor="#399de5"] ;
237 -> 238 ;
239 [label=<gini = 0.0<br/>samples = 1<br/>value = [1, 0]>, fillcolor="#e58139"] ;
237 -> 239 ;
240 [label=<gini = 0.0<br/>samples = 4<br/>value = [6, 0]>, fillcolor="#e58139"] ;
236 -> 240 ;
241 [label=<WEEKDAY_APPR_PROCESS_START_THURSDAY &le; 0.5<br/>gini = 0.49<br/>samples = 400<br/>value = [354, 268]>, fillcolor="#f9e0cf"] ;
229 -> 241 ;
242 [label=<HOUR_APPR_PROCESS_START &le; 3.5<br/>gini = 0.47<br/>samples = 302<br/>value = [296, 180]>, fillcolor="#f5ceb1"] ;
241 -> 242 ;
243 [label=<DAYS_ID_PUBLISH &le; -4361.5<br/>gini = 0.278<br/>samples = 20<br/>value = [5, 25]>, fillcolor="#61b1ea"] ;
242 -> 243 ;
244 [label=<gini = 0.137<br/>samples = 17<br/>value = [2, 25]>, fillcolor="#49a5e7"] ;
243 -> 244 ;
245 [label=<gini = 0.0<br/>samples = 3<br/>value = [3, 0]>, fillcolor="#e58139"] ;
243 -> 245 ;
246 [label=<REGION_POPULATION_RELATIVE &le; 0.005<br/>gini = 0.454<br/>samples = 282<br/>value = [291, 155]>, fillcolor="#f3c4a2"] ;
242 -> 246 ;
247 [label=<gini = 0.0<br/>samples = 19<br/>value = [32, 0]>, fillcolor="#e58139"] ;
246 -> 247 ;
248 [label=<gini = 0.468<br/>samples = 263<br/>value = [259, 155]>, fillcolor="#f5ccaf"] ;
246 -> 248 ;
249 [label=<DAYS_BIRTH &le; -23978.5<br/>gini = 0.479<br/>samples = 98<br/>value = [58, 88]>, fillcolor="#bcdef6"] ;
241 -> 249 ;
250 [label=<gini = 0.0<br/>samples = 5<br/>value = [6, 0]>, fillcolor="#e58139"] ;
249 -> 250 ;
251 [label=<REGION_POPULATION_RELATIVE &le; 0.018<br/>gini = 0.467<br/>samples = 93<br/>value = [52, 88]>, fillcolor="#aed7f4"] ;
249 -> 251 ;
252 [label=<gini = 0.491<br/>samples = 41<br/>value = [38.0, 29.0]>, fillcolor="#f9e1d0"] ;
251 -> 252 ;
253 [label=<gini = 0.31<br/>samples = 52<br/>value = [14, 59]>, fillcolor="#68b4eb"] ;
251 -> 253 ;
254 [label=<DEF_30_CNT_SOCIAL_CIRCLE &le; 0.5<br/>gini = 0.468<br/>samples = 603<br/>value = [364, 610]>, fillcolor="#afd7f5"] ;
228 -> 254 ;
255 [label=<AMT_REQ_CREDIT_BUREAU_QRT &le; 0.5<br/>gini = 0.485<br/>samples = 499<br/>value = [331, 471]>, fillcolor="#c4e2f7"] ;
254 -> 255 ;
256 [label=<AMT_GOODS_PRICE &le; 967500.0<br/>gini = 0.474<br/>samples = 447<br/>value = [279, 444]>, fillcolor="#b5dbf5"] ;
255 -> 256 ;
257 [label=<AMT_REQ_CREDIT_BUREAU_WEEK &le; 1.5<br/>gini = 0.464<br/>samples = 427<br/>value = [252, 438]>, fillcolor="#abd5f4"] ;
256 -> 257 ;
258 [label=<gini = 0.468<br/>samples = 418<br/>value = [252, 423]>, fillcolor="#afd7f4"] ;
257 -> 258 ;
259 [label=<gini = 0.0<br/>samples = 9<br/>value = [0, 15]>, fillcolor="#399de5"] ;
257 -> 259 ;
260 [label=<AMT_GOODS_PRICE &le; 1343250.0<br/>gini = 0.298<br/>samples = 20<br/>value = [27, 6]>, fillcolor="#eb9d65"] ;
256 -> 260 ;
261 [label=<gini = 0.0<br/>samples = 10<br/>value = [20, 0]>, fillcolor="#e58139"] ;
260 -> 261 ;
262 [label=<gini = 0.497<br/>samples = 10<br/>value = [7, 6]>, fillcolor="#fbede3"] ;
260 -> 262 ;
263 [label=<AMT_CREDIT &le; 804575.25<br/>gini = 0.45<br/>samples = 52<br/>value = [52, 27]>, fillcolor="#f2c2a0"] ;
255 -> 263 ;
264 [label=<HOUR_APPR_PROCESS_START &le; 6.5<br/>gini = 0.039<br/>samples = 35<br/>value = [49, 1]>, fillcolor="#e6843d"] ;
263 -> 264 ;
265 [label=<gini = 0.071<br/>samples = 19<br/>value = [26, 1]>, fillcolor="#e68641"] ;
264 -> 265 ;
266 [label=<gini = 0.0<br/>samples = 16<br/>value = [23, 0]>, fillcolor="#e58139"] ;
264 -> 266 ;
267 [label=<AMT_INCOME_TOTAL &le; 96750.0<br/>gini = 0.185<br/>samples = 17<br/>value = [3, 26]>, fillcolor="#50a8e8"] ;
263 -> 267 ;
268 [label=<gini = 0.0<br/>samples = 2<br/>value = [2, 0]>, fillcolor="#e58139"] ;
267 -> 268 ;
269 [label=<gini = 0.071<br/>samples = 15<br/>value = [1, 26]>, fillcolor="#41a1e6"] ;
267 -> 269 ;
270 [label=<AMT_REQ_CREDIT_BUREAU_YEAR &le; 1.5<br/>gini = 0.31<br/>samples = 104<br/>value = [33, 139]>, fillcolor="#68b4eb"] ;
254 -> 270 ;
271 [label=<NAME_EDUCATION_TYPE_Higher education &le; 0.5<br/>gini = 0.2<br/>samples = 78<br/>value = [15, 118]>, fillcolor="#52a9e8"] ;
270 -> 271 ;
272 [label=<AMT_INCOME_TOTAL &le; 164250.0<br/>gini = 0.143<br/>samples = 70<br/>value = [9, 107]>, fillcolor="#4aa5e7"] ;
271 -> 272 ;
273 [label=<gini = 0.085<br/>samples = 67<br/>value = [5, 107]>, fillcolor="#42a2e6"] ;
272 -> 273 ;
274 [label=<gini = 0.0<br/>samples = 3<br/>value = [4, 0]>, fillcolor="#e58139"] ;
272 -> 274 ;
275 [label=<OBS_30_CNT_SOCIAL_CIRCLE &le; 3.0<br/>gini = 0.457<br/>samples = 8<br/>value = [6, 11]>, fillcolor="#a5d2f3"] ;
271 -> 275 ;
276 [label=<gini = 0.0<br/>samples = 2<br/>value = [6, 0]>, fillcolor="#e58139"] ;
275 -> 276 ;
277 [label=<gini = 0.0<br/>samples = 6<br/>value = [0, 11]>, fillcolor="#399de5"] ;
275 -> 277 ;
278 [label=<OBS_30_CNT_SOCIAL_CIRCLE &le; 2.5<br/>gini = 0.497<br/>samples = 26<br/>value = [18, 21]>, fillcolor="#e3f1fb"] ;
270 -> 278 ;
279 [label=<OBS_60_CNT_SOCIAL_CIRCLE &le; 1.5<br/>gini = 0.269<br/>samples = 19<br/>value = [4, 21]>, fillcolor="#5fb0ea"] ;
278 -> 279 ;
280 [label=<gini = 0.444<br/>samples = 5<br/>value = [4, 2]>, fillcolor="#f2c09c"] ;
279 -> 280 ;
281 [label=<gini = 0.0<br/>samples = 14<br/>value = [0, 19]>, fillcolor="#399de5"] ;
279 -> 281 ;
282 [label=<gini = 0.0<br/>samples = 7<br/>value = [14, 0]>, fillcolor="#e58139"] ;
278 -> 282 ;
283 [label=<SK_ID_CURR &le; 334905.5<br/>gini = 0.34<br/>samples = 129<br/>value = [43, 155]>, fillcolor="#70b8ec"] ;
227 -> 283 ;
284 [label=<EXT_SOURCE_3 &le; 0.279<br/>gini = 0.422<br/>samples = 81<br/>value = [36, 83]>, fillcolor="#8fc8f0"] ;
283 -> 284 ;
285 [label=<AMT_CREDIT &le; 261938.25<br/>gini = 0.087<br/>samples = 16<br/>value = [1, 21]>, fillcolor="#42a2e6"] ;
284 -> 285 ;
286 [label=<AMT_ANNUITY &le; 13108.5<br/>gini = 0.198<br/>samples = 7<br/>value = [1, 8]>, fillcolor="#52a9e8"] ;
285 -> 286 ;
287 [label=<gini = 0.0<br/>samples = 6<br/>value = [0, 8]>, fillcolor="#399de5"] ;
286 -> 287 ;
288 [label=<gini = 0.0<br/>samples = 1<br/>value = [1, 0]>, fillcolor="#e58139"] ;
286 -> 288 ;
289 [label=<gini = 0.0<br/>samples = 9<br/>value = [0, 13]>, fillcolor="#399de5"] ;
285 -> 289 ;
290 [label=<DAYS_LAST_PHONE_CHANGE &le; -1527.0<br/>gini = 0.461<br/>samples = 65<br/>value = [35.0, 62.0]>, fillcolor="#a9d4f4"] ;
284 -> 290 ;
291 [label=<gini = 0.0<br/>samples = 6<br/>value = [7, 0]>, fillcolor="#e58139"] ;
290 -> 291 ;
292 [label=<AMT_REQ_CREDIT_BUREAU_MON &le; 0.5<br/>gini = 0.429<br/>samples = 59<br/>value = [28, 62]>, fillcolor="#92c9f1"] ;
290 -> 292 ;
293 [label=<DAYS_REGISTRATION &le; -490.5<br/>gini = 0.395<br/>samples = 56<br/>value = [23, 62]>, fillcolor="#82c1ef"] ;
292 -> 293 ;
294 [label=<gini = 0.359<br/>samples = 54<br/>value = [19, 62]>, fillcolor="#76bbed"] ;
293 -> 294 ;
295 [label=<gini = 0.0<br/>samples = 2<br/>value = [4, 0]>, fillcolor="#e58139"] ;
293 -> 295 ;
296 [label=<gini = 0.0<br/>samples = 3<br/>value = [5, 0]>, fillcolor="#e58139"] ;
292 -> 296 ;
297 [label=<AMT_CREDIT &le; 889515.0<br/>gini = 0.162<br/>samples = 48<br/>value = [7, 72]>, fillcolor="#4ca7e8"] ;
283 -> 297 ;
298 [label=<DAYS_BIRTH &le; -13502.5<br/>gini = 0.249<br/>samples = 29<br/>value = [7, 41]>, fillcolor="#5baee9"] ;
297 -> 298 ;
299 [label=<CNT_FAM_MEMBERS &le; 2.5<br/>gini = 0.223<br/>samples = 28<br/>value = [6.0, 41.0]>, fillcolor="#56abe9"] ;
298 -> 299 ;
300 [label=<DAYS_BIRTH &le; -19367.0<br/>gini = 0.497<br/>samples = 9<br/>value = [6, 7]>, fillcolor="#e3f1fb"] ;
299 -> 300 ;
301 [label=<gini = 0.0<br/>samples = 5<br/>value = [0, 7]>, fillcolor="#399de5"] ;
300 -> 301 ;
302 [label=<gini = 0.0<br/>samples = 4<br/>value = [6, 0]>, fillcolor="#e58139"] ;
300 -> 302 ;
303 [label=<gini = 0.0<br/>samples = 19<br/>value = [0, 34]>, fillcolor="#399de5"] ;
299 -> 303 ;
304 [label=<gini = 0.0<br/>samples = 1<br/>value = [1, 0]>, fillcolor="#e58139"] ;
298 -> 304 ;
305 [label=<gini = 0.0<br/>samples = 19<br/>value = [0, 31]>, fillcolor="#399de5"] ;
297 -> 305 ;
306 [label=<OBS_30_CNT_SOCIAL_CIRCLE &le; 14.5<br/>gini = 0.5<br/>samples = 8009<br/>value = [6362, 6260]>, fillcolor="#fffdfc"] ;
226 -> 306 ;
307 [label=<CODE_GENDER &le; 0.5<br/>gini = 0.5<br/>samples = 7986<br/>value = [6319, 6260]>, fillcolor="#fffefd"] ;
306 -> 307 ;
308 [label=<DAYS_ID_PUBLISH &le; -2481.0<br/>gini = 0.498<br/>samples = 6144<br/>value = [5134, 4559]>, fillcolor="#fcf1e9"] ;
307 -> 308 ;
309 [label=<AMT_CREDIT &le; 269775.0<br/>gini = 0.494<br/>samples = 5228<br/>value = [4577, 3696]>, fillcolor="#fae7d9"] ;
308 -> 309 ;
310 [label=<OBS_30_CNT_SOCIAL_CIRCLE &le; 4.5<br/>gini = 0.459<br/>samples = 1442<br/>value = [1478.0, 823.0]>, fillcolor="#f3c7a7"] ;
309 -> 310 ;
311 [label=<DAYS_BIRTH &le; -24818.5<br/>gini = 0.465<br/>samples = 1298<br/>value = [1308, 758]>, fillcolor="#f4caac"] ;
310 -> 311 ;
312 [label=<gini = 0.184<br/>samples = 59<br/>value = [79, 9]>, fillcolor="#e88f50"] ;
311 -> 312 ;
313 [label=<gini = 0.471<br/>samples = 1239<br/>value = [1229, 749]>, fillcolor="#f5ceb2"] ;
311 -> 313 ;
314 [label=<REGION_RATING_CLIENT_W_CITY &le; 2.5<br/>gini = 0.4<br/>samples = 144<br/>value = [170, 65]>, fillcolor="#efb185"] ;
310 -> 314 ;
315 [label=<gini = 0.435<br/>samples = 125<br/>value = [138, 65]>, fillcolor="#f1bc96"] ;
314 -> 315 ;
316 [label=<gini = 0.0<br/>samples = 19<br/>value = [32, 0]>, fillcolor="#e58139"] ;
314 -> 316 ;
317 [label=<CNT_CHILDREN &le; 1.5<br/>gini = 0.499<br/>samples = 3786<br/>value = [3099.0, 2873.0]>, fillcolor="#fdf6f1"] ;
309 -> 317 ;
318 [label=<DAYS_EMPLOYED &le; -3870.5<br/>gini = 0.499<br/>samples = 3747<br/>value = [3087, 2822]>, fillcolor="#fdf4ee"] ;
317 -> 318 ;
319 [label=<gini = 0.0<br/>samples = 14<br/>value = [23, 0]>, fillcolor="#e58139"] ;
318 -> 319 ;
320 [label=<gini = 0.499<br/>samples = 3733<br/>value = [3064.0, 2822.0]>, fillcolor="#fdf5ef"] ;
318 -> 320 ;
321 [label=<HOUR_APPR_PROCESS_START &le; 10.5<br/>gini = 0.308<br/>samples = 39<br/>value = [12, 51]>, fillcolor="#68b4eb"] ;
317 -> 321 ;
322 [label=<gini = 0.0<br/>samples = 3<br/>value = [5, 0]>, fillcolor="#e58139"] ;
321 -> 322 ;
323 [label=<gini = 0.212<br/>samples = 36<br/>value = [7, 51]>, fillcolor="#54aae9"] ;
321 -> 323 ;
324 [label=<NAME_FAMILY_STATUS_Separated &le; 0.5<br/>gini = 0.477<br/>samples = 916<br/>value = [557, 863]>, fillcolor="#b9dcf6"] ;
308 -> 324 ;
325 [label=<AMT_INCOME_TOTAL &le; 61875.0<br/>gini = 0.469<br/>samples = 867<br/>value = [506, 838]>, fillcolor="#b1d8f5"] ;
324 -> 325 ;
326 [label=<EXT_SOURCE_2 &le; 0.271<br/>gini = 0.419<br/>samples = 48<br/>value = [54, 23]>, fillcolor="#f0b78d"] ;
325 -> 326 ;
327 [label=<gini = 0.484<br/>samples = 23<br/>value = [14, 20]>, fillcolor="#c4e2f7"] ;
326 -> 327 ;
328 [label=<gini = 0.13<br/>samples = 25<br/>value = [40, 3]>, fillcolor="#e78a48"] ;
326 -> 328 ;
329 [label=<AMT_REQ_CREDIT_BUREAU_YEAR &le; 6.5<br/>gini = 0.459<br/>samples = 819<br/>value = [452, 815]>, fillcolor="#a7d3f3"] ;
325 -> 329 ;
330 [label=<gini = 0.468<br/>samples = 775<br/>value = [449, 751]>, fillcolor="#afd8f5"] ;
329 -> 330 ;
331 [label=<gini = 0.086<br/>samples = 44<br/>value = [3, 64]>, fillcolor="#42a2e6"] ;
329 -> 331 ;
332 [label=<DAYS_REGISTRATION &le; -434.5<br/>gini = 0.441<br/>samples = 49<br/>value = [51, 25]>, fillcolor="#f2bf9a"] ;
324 -> 332 ;
333 [label=<WEEKDAY_APPR_PROCESS_START_THURSDAY &le; 0.5<br/>gini = 0.245<br/>samples = 35<br/>value = [48, 8]>, fillcolor="#e9965a"] ;
332 -> 333 ;
334 [label=<gini = 0.0<br/>samples = 22<br/>value = [38, 0]>, fillcolor="#e58139"] ;
333 -> 334 ;
335 [label=<gini = 0.494<br/>samples = 13<br/>value = [10, 8]>, fillcolor="#fae6d7"] ;
333 -> 335 ;
336 [label=<REGION_RATING_CLIENT_W_CITY &le; 2.5<br/>gini = 0.255<br/>samples = 14<br/>value = [3, 17]>, fillcolor="#5caeea"] ;
332 -> 336 ;
337 [label=<gini = 0.105<br/>samples = 13<br/>value = [1, 17]>, fillcolor="#45a3e7"] ;
336 -> 337 ;
338 [label=<gini = 0.0<br/>samples = 1<br/>value = [2, 0]>, fillcolor="#e58139"] ;
336 -> 338 ;
339 [label=<NAME_TYPE_SUITE_Spouse, partner &le; 0.5<br/>gini = 0.484<br/>samples = 1842<br/>value = [1185.0, 1701.0]>, fillcolor="#c3e1f7"] ;
307 -> 339 ;
340 [label=<AMT_ANNUITY &le; 40864.5<br/>gini = 0.479<br/>samples = 1678<br/>value = [1049, 1583]>, fillcolor="#bcdef6"] ;
339 -> 340 ;
341 [label=<HOUR_APPR_PROCESS_START &le; 8.5<br/>gini = 0.473<br/>samples = 1613<br/>value = [974.0, 1561.0]>, fillcolor="#b5daf5"] ;
340 -> 341 ;
342 [label=<SK_ID_CURR &le; 395144.0<br/>gini = 0.495<br/>samples = 138<br/>value = [118, 97]>, fillcolor="#fae9dc"] ;
341 -> 342 ;
343 [label=<gini = 0.464<br/>samples = 101<br/>value = [97.0, 56.0]>, fillcolor="#f4caab"] ;
342 -> 343 ;
344 [label=<gini = 0.448<br/>samples = 37<br/>value = [21, 41]>, fillcolor="#9ecff2"] ;
342 -> 344 ;
345 [label=<DAYS_REGISTRATION &le; -1147.0<br/>gini = 0.466<br/>samples = 1475<br/>value = [856, 1464]>, fillcolor="#add6f4"] ;
341 -> 345 ;
346 [label=<gini = 0.473<br/>samples = 1255<br/>value = [759, 1214]>, fillcolor="#b5daf5"] ;
345 -> 346 ;
347 [label=<gini = 0.403<br/>samples = 220<br/>value = [97, 250]>, fillcolor="#86c3ef"] ;
345 -> 347 ;
348 [label=<AMT_INCOME_TOTAL &le; 184500.0<br/>gini = 0.351<br/>samples = 65<br/>value = [75, 22]>, fillcolor="#eda673"] ;
340 -> 348 ;
349 [label=<gini = 0.0<br/>samples = 25<br/>value = [43, 0]>, fillcolor="#e58139"] ;
348 -> 349 ;
350 [label=<AMT_REQ_CREDIT_BUREAU_DAY &le; 1.5<br/>gini = 0.483<br/>samples = 40<br/>value = [32, 22]>, fillcolor="#f7d8c1"] ;
348 -> 350 ;
351 [label=<gini = 0.444<br/>samples = 36<br/>value = [32, 16]>, fillcolor="#f2c09c"] ;
350 -> 351 ;
352 [label=<gini = 0.0<br/>samples = 4<br/>value = [0, 6]>, fillcolor="#399de5"] ;
350 -> 352 ;
353 [label=<AMT_CREDIT &le; 271593.0<br/>gini = 0.497<br/>samples = 164<br/>value = [136, 118]>, fillcolor="#fceee5"] ;
339 -> 353 ;
354 [label=<CNT_CHILDREN &le; 1.0<br/>gini = 0.249<br/>samples = 29<br/>value = [41, 7]>, fillcolor="#e9975b"] ;
353 -> 354 ;
355 [label=<gini = 0.0<br/>samples = 23<br/>value = [41, 0]>, fillcolor="#e58139"] ;
354 -> 355 ;
356 [label=<gini = 0.0<br/>samples = 6<br/>value = [0, 7]>, fillcolor="#399de5"] ;
354 -> 356 ;
357 [label=<DAYS_BIRTH &le; -22766.5<br/>gini = 0.497<br/>samples = 135<br/>value = [95, 111]>, fillcolor="#e2f1fb"] ;
353 -> 357 ;
358 [label=<EXT_SOURCE_2 &le; 0.221<br/>gini = 0.327<br/>samples = 69<br/>value = [20, 77]>, fillcolor="#6cb6ec"] ;
357 -> 358 ;
359 [label=<gini = 0.073<br/>samples = 37<br/>value = [2, 51]>, fillcolor="#41a1e6"] ;
358 -> 359 ;
360 [label=<gini = 0.483<br/>samples = 32<br/>value = [18, 26]>, fillcolor="#c2e1f7"] ;
358 -> 360 ;
361 [label=<SK_ID_CURR &le; 255740.0<br/>gini = 0.429<br/>samples = 66<br/>value = [75, 34]>, fillcolor="#f1ba93"] ;
357 -> 361 ;
362 [label=<gini = 0.0<br/>samples = 21<br/>value = [40, 0]>, fillcolor="#e58139"] ;
361 -> 362 ;
363 [label=<gini = 0.5<br/>samples = 45<br/>value = [35, 34]>, fillcolor="#fefbf9"] ;
361 -> 363 ;
364 [label=<gini = 0.0<br/>samples = 23<br/>value = [43, 0]>, fillcolor="#e58139"] ;
306 -> 364 ;
365 [label=<NAME_EDUCATION_TYPE_Higher education &le; 0.5<br/>gini = 0.455<br/>samples = 73376<br/>value = [75678, 40627]>, fillcolor="#f3c5a3"] ;
1 -> 365 ;
366 [label=<REG_CITY_NOT_WORK_CITY &le; 0.5<br/>gini = 0.47<br/>samples = 52553<br/>value = [51867, 31352]>, fillcolor="#f5cdb1"] ;
365 -> 366 ;
367 [label=<NAME_INCOME_TYPE_Commercial associate &le; 0.5<br/>gini = 0.462<br/>samples = 43888<br/>value = [44249, 25183]>, fillcolor="#f4c9aa"] ;
366 -> 367 ;
368 [label=<EXT_SOURCE_2 &le; 0.648<br/>gini = 0.441<br/>samples = 24951<br/>value = [26538, 12952]>, fillcolor="#f2be9a"] ;
367 -> 368 ;
369 [label=<NAME_HOUSING_TYPE_With parents &le; 0.5<br/>gini = 0.469<br/>samples = 14507<br/>value = [14339, 8628]>, fillcolor="#f5cdb0"] ;
368 -> 369 ;
370 [label=<REGION_POPULATION_RELATIVE &le; 0.01<br/>gini = 0.468<br/>samples = 14327<br/>value = [14227, 8451]>, fillcolor="#f4ccaf"] ;
369 -> 370 ;
371 [label=<DAYS_EMPLOYED &le; -2345.5<br/>gini = 0.454<br/>samples = 3785<br/>value = [3881, 2072]>, fillcolor="#f3c4a3"] ;
370 -> 371 ;
372 [label=<WEEKDAY_APPR_PROCESS_START_TUESDAY &le; 0.5<br/>gini = 0.342<br/>samples = 411<br/>value = [509.0, 143.0]>, fillcolor="#eca471"] ;
371 -> 372 ;
373 [label=<gini = 0.261<br/>samples = 316<br/>value = [423, 77]>, fillcolor="#ea985d"] ;
372 -> 373 ;
374 [label=<gini = 0.491<br/>samples = 95<br/>value = [86, 66]>, fillcolor="#f9e2d1"] ;
372 -> 374 ;
375 [label=<DAYS_LAST_PHONE_CHANGE &le; -1024.5<br/>gini = 0.463<br/>samples = 3374<br/>value = [3372, 1929]>, fillcolor="#f4c9aa"] ;
371 -> 375 ;
376 [label=<gini = 0.399<br/>samples = 1203<br/>value = [1378, 523]>, fillcolor="#efb184"] ;
375 -> 376 ;
377 [label=<gini = 0.485<br/>samples = 2171<br/>value = [1994.0, 1406.0]>, fillcolor="#f7dac5"] ;
375 -> 377 ;
378 [label=<DAYS_LAST_PHONE_CHANGE &le; -752.5<br/>gini = 0.472<br/>samples = 10542<br/>value = [10346, 6379]>, fillcolor="#f5cfb3"] ;
370 -> 378 ;
379 [label=<EXT_SOURCE_3 &le; 0.536<br/>gini = 0.454<br/>samples = 5396<br/>value = [5561, 2978]>, fillcolor="#f3c4a3"] ;
378 -> 379 ;
380 [label=<gini = 0.494<br/>samples = 3090<br/>value = [2725, 2169]>, fillcolor="#fae5d7"] ;
379 -> 380 ;
381 [label=<gini = 0.345<br/>samples = 2306<br/>value = [2836, 809]>, fillcolor="#eca571"] ;
379 -> 381 ;
382 [label=<CNT_CHILDREN &le; 0.5<br/>gini = 0.486<br/>samples = 5146<br/>value = [4785, 3401]>, fillcolor="#f7dbc6"] ;
378 -> 382 ;
383 [label=<gini = 0.48<br/>samples = 4660<br/>value = [4447, 2959]>, fillcolor="#f6d5bd"] ;
382 -> 383 ;
384 [label=<gini = 0.491<br/>samples = 486<br/>value = [338, 442]>, fillcolor="#d0e8f9"] ;
382 -> 384 ;
385 [label=<HOUR_APPR_PROCESS_START &le; 16.5<br/>gini = 0.475<br/>samples = 180<br/>value = [112.0, 177.0]>, fillcolor="#b6dbf5"] ;
369 -> 385 ;
386 [label=<EXT_SOURCE_3 &le; 0.334<br/>gini = 0.459<br/>samples = 173<br/>value = [98, 177]>, fillcolor="#a7d3f3"] ;
385 -> 386 ;
387 [label=<AMT_CREDIT &le; 556920.0<br/>gini = 0.188<br/>samples = 54<br/>value = [10, 85]>, fillcolor="#50a9e8"] ;
386 -> 387 ;
388 [label=<gini = 0.105<br/>samples = 51<br/>value = [5, 85]>, fillcolor="#45a3e7"] ;
387 -> 388 ;
389 [label=<gini = 0.0<br/>samples = 3<br/>value = [5, 0]>, fillcolor="#e58139"] ;
387 -> 389 ;
390 [label=<FLAG_WORK_PHONE &le; 0.5<br/>gini = 0.5<br/>samples = 119<br/>value = [88, 92]>, fillcolor="#f6fbfe"] ;
386 -> 390 ;
391 [label=<gini = 0.475<br/>samples = 86<br/>value = [79, 50]>, fillcolor="#f5d1b6"] ;
390 -> 391 ;
392 [label=<gini = 0.291<br/>samples = 33<br/>value = [9, 42]>, fillcolor="#63b2eb"] ;
390 -> 392 ;
393 [label=<gini = 0.0<br/>samples = 7<br/>value = [14, 0]>, fillcolor="#e58139"] ;
385 -> 393 ;
394 [label=<EXT_SOURCE_3 &le; 0.498<br/>gini = 0.386<br/>samples = 10444<br/>value = [12199, 4324]>, fillcolor="#eeae7f"] ;
368 -> 394 ;
395 [label=<REGION_POPULATION_RELATIVE &le; 0.012<br/>gini = 0.474<br/>samples = 2998<br/>value = [2925.0, 1834.0]>, fillcolor="#f5d0b5"] ;
394 -> 395 ;
396 [label=<CNT_FAM_MEMBERS &le; 2.5<br/>gini = 0.441<br/>samples = 817<br/>value = [868, 425]>, fillcolor="#f2bf9a"] ;
395 -> 396 ;
397 [label=<DAYS_EMPLOYED &le; -3149.5<br/>gini = 0.413<br/>samples = 708<br/>value = [786, 324]>, fillcolor="#f0b58b"] ;
396 -> 397 ;
398 [label=<gini = 0.499<br/>samples = 85<br/>value = [66, 72]>, fillcolor="#eff7fd"] ;
397 -> 398 ;
399 [label=<gini = 0.384<br/>samples = 623<br/>value = [720, 252]>, fillcolor="#eead7e"] ;
397 -> 399 ;
400 [label=<DAYS_LAST_PHONE_CHANGE &le; -1089.5<br/>gini = 0.495<br/>samples = 109<br/>value = [82.0, 101.0]>, fillcolor="#daedfa"] ;
396 -> 400 ;
401 [label=<gini = 0.437<br/>samples = 37<br/>value = [42, 20]>, fillcolor="#f1bd97"] ;
400 -> 401 ;
402 [label=<gini = 0.443<br/>samples = 72<br/>value = [40, 81]>, fillcolor="#9bcdf2"] ;
400 -> 402 ;
403 [label=<HOUR_APPR_PROCESS_START &le; 16.5<br/>gini = 0.483<br/>samples = 2181<br/>value = [2057, 1409]>, fillcolor="#f7d7c1"] ;
395 -> 403 ;
404 [label=<AMT_REQ_CREDIT_BUREAU_MON &le; 1.5<br/>gini = 0.49<br/>samples = 1991<br/>value = [1804.0, 1355.0]>, fillcolor="#f9e0ce"] ;
403 -> 404 ;
405 [label=<gini = 0.492<br/>samples = 1916<br/>value = [1716, 1335]>, fillcolor="#f9e3d3"] ;
404 -> 405 ;
406 [label=<gini = 0.302<br/>samples = 75<br/>value = [88, 20]>, fillcolor="#eb9e66"] ;
404 -> 406 ;
407 [label=<DAYS_BIRTH &le; -22166.5<br/>gini = 0.29<br/>samples = 190<br/>value = [253, 54]>, fillcolor="#eb9c63"] ;
403 -> 407 ;
408 [label=<gini = 0.0<br/>samples = 38<br/>value = [65, 0]>, fillcolor="#e58139"] ;
407 -> 408 ;
409 [label=<gini = 0.347<br/>samples = 152<br/>value = [188, 54]>, fillcolor="#eca572"] ;
407 -> 409 ;
410 [label=<AMT_REQ_CREDIT_BUREAU_DAY &le; 2.5<br/>gini = 0.334<br/>samples = 7446<br/>value = [9274, 2490]>, fillcolor="#eca36e"] ;
394 -> 410 ;
411 [label=<DAYS_EMPLOYED &le; -5310.0<br/>gini = 0.332<br/>samples = 7434<br/>value = [9272, 2471]>, fillcolor="#eca36e"] ;
410 -> 411 ;
412 [label=<DAYS_ID_PUBLISH &le; -448.0<br/>gini = 0.152<br/>samples = 340<br/>value = [477, 43]>, fillcolor="#e78c4b"] ;
411 -> 412 ;
413 [label=<gini = 0.079<br/>samples = 305<br/>value = [444, 19]>, fillcolor="#e68641"] ;
412 -> 413 ;
414 [label=<gini = 0.488<br/>samples = 35<br/>value = [33, 24]>, fillcolor="#f8ddc9"] ;
412 -> 414 ;
415 [label=<EXT_SOURCE_2 &le; 0.701<br/>gini = 0.339<br/>samples = 7094<br/>value = [8795, 2428]>, fillcolor="#eca470"] ;
411 -> 415 ;
416 [label=<gini = 0.376<br/>samples = 3642<br/>value = [4307.0, 1447.0]>, fillcolor="#eeab7c"] ;
415 -> 416 ;
417 [label=<gini = 0.294<br/>samples = 3452<br/>value = [4488, 981]>, fillcolor="#eb9d64"] ;
415 -> 417 ;
418 [label=<SK_ID_CURR &le; 431800.0<br/>gini = 0.172<br/>samples = 12<br/>value = [2, 19]>, fillcolor="#4ea7e8"] ;
410 -> 418 ;
419 [label=<gini = 0.0<br/>samples = 11<br/>value = [0, 19]>, fillcolor="#399de5"] ;
418 -> 419 ;
420 [label=<gini = 0.0<br/>samples = 1<br/>value = [2, 0]>, fillcolor="#e58139"] ;
418 -> 420 ;
421 [label=<EXT_SOURCE_2 &le; 0.646<br/>gini = 0.483<br/>samples = 18937<br/>value = [17711, 12231]>, fillcolor="#f7d8c2"] ;
367 -> 421 ;
422 [label=<FLAG_PHONE &le; 0.5<br/>gini = 0.497<br/>samples = 10170<br/>value = [8679, 7458]>, fillcolor="#fbede3"] ;
421 -> 422 ;
423 [label=<EXT_SOURCE_3 &le; 0.274<br/>gini = 0.499<br/>samples = 7645<br/>value = [6347, 5825]>, fillcolor="#fdf5ef"] ;
422 -> 423 ;
424 [label=<DAYS_BIRTH &le; -10573.0<br/>gini = 0.43<br/>samples = 1329<br/>value = [658, 1444]>, fillcolor="#93caf1"] ;
423 -> 424 ;
425 [label=<AMT_GOODS_PRICE &le; 1282500.0<br/>gini = 0.447<br/>samples = 1037<br/>value = [555, 1093]>, fillcolor="#9ecff2"] ;
424 -> 425 ;
426 [label=<gini = 0.442<br/>samples = 1024<br/>value = [539, 1093]>, fillcolor="#9bcdf2"] ;
425 -> 426 ;
427 [label=<gini = 0.0<br/>samples = 13<br/>value = [16, 0]>, fillcolor="#e58139"] ;
425 -> 427 ;
428 [label=<REGION_POPULATION_RELATIVE &le; 0.007<br/>gini = 0.351<br/>samples = 292<br/>value = [103, 351]>, fillcolor="#73baed"] ;
424 -> 428 ;
429 [label=<gini = 0.497<br/>samples = 23<br/>value = [18, 21]>, fillcolor="#e3f1fb"] ;
428 -> 429 ;
430 [label=<gini = 0.326<br/>samples = 269<br/>value = [85, 330]>, fillcolor="#6cb6ec"] ;
428 -> 430 ;
431 [label=<AMT_GOODS_PRICE &le; 920250.0<br/>gini = 0.492<br/>samples = 6316<br/>value = [5689.0, 4381.0]>, fillcolor="#f9e2d1"] ;
423 -> 431 ;
432 [label=<AMT_ANNUITY &le; 28248.75<br/>gini = 0.495<br/>samples = 5579<br/>value = [4915, 3993]>, fillcolor="#fae7da"] ;
431 -> 432 ;
433 [label=<gini = 0.478<br/>samples = 3306<br/>value = [3216, 2106]>, fillcolor="#f6d4bb"] ;
432 -> 433 ;
434 [label=<gini = 0.499<br/>samples = 2273<br/>value = [1699.0, 1887.0]>, fillcolor="#ebf5fc"] ;
432 -> 434 ;
435 [label=<DAYS_EMPLOYED &le; -3694.5<br/>gini = 0.445<br/>samples = 737<br/>value = [774.0, 388.0]>, fillcolor="#f2c09c"] ;
431 -> 435 ;
436 [label=<gini = 0.204<br/>samples = 131<br/>value = [169, 22]>, fillcolor="#e89153"] ;
435 -> 436 ;
437 [label=<gini = 0.47<br/>samples = 606<br/>value = [605, 366]>, fillcolor="#f5cdb1"] ;
435 -> 437 ;
438 [label=<NAME_CONTRACT_TYPE_Revolving loans &le; 0.5<br/>gini = 0.484<br/>samples = 2525<br/>value = [2332, 1633]>, fillcolor="#f7d9c4"] ;
422 -> 438 ;
439 [label=<FLAG_OWN_REALTY_Y &le; 0.5<br/>gini = 0.49<br/>samples = 2363<br/>value = [2122, 1586]>, fillcolor="#f8dfcd"] ;
438 -> 439 ;
440 [label=<AMT_CREDIT &le; 452250.0<br/>gini = 0.499<br/>samples = 896<br/>value = [735, 682]>, fillcolor="#fdf6f1"] ;
439 -> 440 ;
441 [label=<gini = 0.489<br/>samples = 362<br/>value = [242, 326]>, fillcolor="#cce6f8"] ;
440 -> 441 ;
442 [label=<gini = 0.487<br/>samples = 534<br/>value = [493, 356]>, fillcolor="#f8dcc8"] ;
440 -> 442 ;
443 [label=<NAME_TYPE_SUITE_Unaccompanied &le; 0.5<br/>gini = 0.478<br/>samples = 1467<br/>value = [1387, 904]>, fillcolor="#f6d3ba"] ;
439 -> 443 ;
444 [label=<gini = 0.417<br/>samples = 256<br/>value = [282, 119]>, fillcolor="#f0b68d"] ;
443 -> 444 ;
445 [label=<gini = 0.486<br/>samples = 1211<br/>value = [1105, 785]>, fillcolor="#f7dbc6"] ;
443 -> 445 ;
446 [label=<SK_ID_CURR &le; 435908.5<br/>gini = 0.299<br/>samples = 162<br/>value = [210, 47]>, fillcolor="#eb9d65"] ;
438 -> 446 ;
447 [label=<DAYS_EMPLOYED &le; -185.5<br/>gini = 0.233<br/>samples = 148<br/>value = [199, 31]>, fillcolor="#e99558"] ;
446 -> 447 ;
448 [label=<gini = 0.149<br/>samples = 128<br/>value = [182, 16]>, fillcolor="#e78c4a"] ;
447 -> 448 ;
449 [label=<gini = 0.498<br/>samples = 20<br/>value = [17, 15]>, fillcolor="#fcf0e8"] ;
447 -> 449 ;
450 [label=<SK_ID_CURR &le; 440181.0<br/>gini = 0.483<br/>samples = 14<br/>value = [11, 16]>, fillcolor="#c1e0f7"] ;
446 -> 450 ;
451 [label=<gini = 0.0<br/>samples = 8<br/>value = [0, 16]>, fillcolor="#399de5"] ;
450 -> 451 ;
452 [label=<gini = 0.0<br/>samples = 6<br/>value = [11, 0]>, fillcolor="#e58139"] ;
450 -> 452 ;
453 [label=<DEF_30_CNT_SOCIAL_CIRCLE &le; 1.5<br/>gini = 0.452<br/>samples = 8767<br/>value = [9032, 4773]>, fillcolor="#f3c4a2"] ;
421 -> 453 ;
454 [label=<AMT_ANNUITY &le; 10433.25<br/>gini = 0.449<br/>samples = 8512<br/>value = [8846, 4572]>, fillcolor="#f2c29f"] ;
453 -> 454 ;
455 [label=<REGION_POPULATION_RELATIVE &le; 0.005<br/>gini = 0.493<br/>samples = 493<br/>value = [419, 332]>, fillcolor="#fae5d6"] ;
454 -> 455 ;
456 [label=<AMT_CREDIT &le; 138474.0<br/>gini = 0.379<br/>samples = 48<br/>value = [17, 50]>, fillcolor="#7cbeee"] ;
455 -> 456 ;
457 [label=<gini = 0.0<br/>samples = 7<br/>value = [12, 0]>, fillcolor="#e58139"] ;
456 -> 457 ;
458 [label=<gini = 0.165<br/>samples = 41<br/>value = [5, 50]>, fillcolor="#4da7e8"] ;
456 -> 458 ;
459 [label=<DAYS_BIRTH &le; -20878.5<br/>gini = 0.485<br/>samples = 445<br/>value = [402.0, 282.0]>, fillcolor="#f7d9c4"] ;
455 -> 459 ;
460 [label=<gini = 0.402<br/>samples = 42<br/>value = [17, 44]>, fillcolor="#86c3ef"] ;
459 -> 460 ;
461 [label=<gini = 0.472<br/>samples = 403<br/>value = [385, 238]>, fillcolor="#f5cfb3"] ;
459 -> 461 ;
462 [label=<DAYS_EMPLOYED &le; -1560.5<br/>gini = 0.445<br/>samples = 8019<br/>value = [8427, 4240]>, fillcolor="#f2c09d"] ;
454 -> 462 ;
463 [label=<DAYS_LAST_PHONE_CHANGE &le; -2912.5<br/>gini = 0.403<br/>samples = 4317<br/>value = [4942, 1921]>, fillcolor="#efb286"] ;
462 -> 463 ;
464 [label=<gini = 0.13<br/>samples = 189<br/>value = [267, 20]>, fillcolor="#e78a48"] ;
463 -> 464 ;
465 [label=<gini = 0.411<br/>samples = 4128<br/>value = [4675, 1901]>, fillcolor="#f0b48a"] ;
463 -> 465 ;
466 [label=<DAYS_ID_PUBLISH &le; -4378.5<br/>gini = 0.48<br/>samples = 3702<br/>value = [3485, 2319]>, fillcolor="#f6d5bd"] ;
462 -> 466 ;
467 [label=<gini = 0.428<br/>samples = 648<br/>value = [673, 303]>, fillcolor="#f1ba92"] ;
466 -> 467 ;
468 [label=<gini = 0.486<br/>samples = 3054<br/>value = [2812, 2016]>, fillcolor="#f8dbc7"] ;
466 -> 468 ;
469 [label=<NAME_EDUCATION_TYPE_Incomplete higher &le; 0.5<br/>gini = 0.499<br/>samples = 255<br/>value = [186, 201]>, fillcolor="#f0f8fd"] ;
453 -> 469 ;
470 [label=<SK_ID_CURR &le; 133332.5<br/>gini = 0.499<br/>samples = 227<br/>value = [178, 161]>, fillcolor="#fdf3ec"] ;
469 -> 470 ;
471 [label=<gini = 0.0<br/>samples = 12<br/>value = [20, 0]>, fillcolor="#e58139"] ;
470 -> 471 ;
472 [label=<AMT_CREDIT &le; 320454.0<br/>gini = 0.5<br/>samples = 215<br/>value = [158, 161]>, fillcolor="#fbfdff"] ;
470 -> 472 ;
473 [label=<gini = 0.0<br/>samples = 23<br/>value = [32, 0]>, fillcolor="#e58139"] ;
472 -> 473 ;
474 [label=<gini = 0.493<br/>samples = 192<br/>value = [126.0, 161.0]>, fillcolor="#d4eaf9"] ;
472 -> 474 ;
475 [label=<DAYS_EMPLOYED &le; -4201.5<br/>gini = 0.278<br/>samples = 28<br/>value = [8, 40]>, fillcolor="#61b1ea"] ;
469 -> 475 ;
476 [label=<gini = 0.0<br/>samples = 2<br/>value = [3, 0]>, fillcolor="#e58139"] ;
475 -> 476 ;
477 [label=<AMT_GOODS_PRICE &le; 321750.0<br/>gini = 0.198<br/>samples = 26<br/>value = [5, 40]>, fillcolor="#52a9e8"] ;
475 -> 477 ;
478 [label=<gini = 0.0<br/>samples = 2<br/>value = [4, 0]>, fillcolor="#e58139"] ;
477 -> 478 ;
479 [label=<gini = 0.048<br/>samples = 24<br/>value = [1, 40]>, fillcolor="#3e9fe6"] ;
477 -> 479 ;
480 [label=<DAYS_EMPLOYED &le; -1376.5<br/>gini = 0.494<br/>samples = 8665<br/>value = [7618, 6169]>, fillcolor="#fae7d9"] ;
366 -> 480 ;
481 [label=<DAYS_LAST_PHONE_CHANGE &le; -2945.0<br/>gini = 0.462<br/>samples = 4170<br/>value = [4214, 2391]>, fillcolor="#f4c8a9"] ;
480 -> 481 ;
482 [label=<EXT_SOURCE_2 &le; 0.521<br/>gini = 0.034<br/>samples = 79<br/>value = [114, 2]>, fillcolor="#e5833c"] ;
481 -> 482 ;
483 [label=<AMT_GOODS_PRICE &le; 798750.0<br/>gini = 0.444<br/>samples = 4<br/>value = [4, 2]>, fillcolor="#f2c09c"] ;
482 -> 483 ;
484 [label=<gini = 0.0<br/>samples = 2<br/>value = [4, 0]>, fillcolor="#e58139"] ;
483 -> 484 ;
485 [label=<gini = 0.0<br/>samples = 2<br/>value = [0, 2]>, fillcolor="#399de5"] ;
483 -> 485 ;
486 [label=<gini = 0.0<br/>samples = 75<br/>value = [110, 0]>, fillcolor="#e58139"] ;
482 -> 486 ;
487 [label=<EXT_SOURCE_3 &le; 0.566<br/>gini = 0.465<br/>samples = 4091<br/>value = [4100, 2389]>, fillcolor="#f4caac"] ;
481 -> 487 ;
488 [label=<AMT_GOODS_PRICE &le; 902250.0<br/>gini = 0.491<br/>samples = 2810<br/>value = [2518, 1936]>, fillcolor="#f9e2d1"] ;
487 -> 488 ;
489 [label=<EXT_SOURCE_2 &le; 0.63<br/>gini = 0.497<br/>samples = 2437<br/>value = [2084, 1793]>, fillcolor="#fbede3"] ;
488 -> 489 ;
490 [label=<DAYS_REGISTRATION &le; -6356.0<br/>gini = 0.496<br/>samples = 1355<br/>value = [1000, 1186]>, fillcolor="#e0f0fb"] ;
489 -> 490 ;
491 [label=<gini = 0.465<br/>samples = 350<br/>value = [205, 352]>, fillcolor="#acd6f4"] ;
490 -> 491 ;
492 [label=<gini = 0.5<br/>samples = 1005<br/>value = [795, 834]>, fillcolor="#f6fafe"] ;
490 -> 492 ;
493 [label=<DAYS_REGISTRATION &le; -959.5<br/>gini = 0.46<br/>samples = 1082<br/>value = [1084, 607]>, fillcolor="#f4c8a8"] ;
489 -> 493 ;
494 [label=<gini = 0.474<br/>samples = 966<br/>value = [925, 579]>, fillcolor="#f5d0b5"] ;
493 -> 494 ;
495 [label=<gini = 0.255<br/>samples = 116<br/>value = [159.0, 28.0]>, fillcolor="#ea975c"] ;
493 -> 495 ;
496 [label=<ORGANIZATION_TYPE_Other &le; 0.5<br/>gini = 0.373<br/>samples = 373<br/>value = [434, 143]>, fillcolor="#eeab7a"] ;
488 -> 496 ;
497 [label=<AMT_CREDIT &le; 2281086.0<br/>gini = 0.231<br/>samples = 133<br/>value = [176, 27]>, fillcolor="#e99457"] ;
496 -> 497 ;
498 [label=<gini = 0.186<br/>samples = 128<br/>value = [173, 20]>, fillcolor="#e89050"] ;
497 -> 498 ;
499 [label=<gini = 0.42<br/>samples = 5<br/>value = [3, 7]>, fillcolor="#8ec7f0"] ;
497 -> 499 ;
500 [label=<AMT_CREDIT &le; 1494405.0<br/>gini = 0.428<br/>samples = 240<br/>value = [258, 116]>, fillcolor="#f1ba92"] ;
496 -> 500 ;
501 [label=<gini = 0.287<br/>samples = 155<br/>value = [205, 43]>, fillcolor="#ea9b63"] ;
500 -> 501 ;
502 [label=<gini = 0.487<br/>samples = 85<br/>value = [53, 73]>, fillcolor="#c9e4f8"] ;
500 -> 502 ;
503 [label=<AMT_GOODS_PRICE &le; 1091250.0<br/>gini = 0.346<br/>samples = 1281<br/>value = [1582, 453]>, fillcolor="#eca572"] ;
487 -> 503 ;
504 [label=<NAME_INCOME_TYPE_State servant &le; 0.5<br/>gini = 0.369<br/>samples = 1117<br/>value = [1328, 429]>, fillcolor="#edaa79"] ;
503 -> 504 ;
505 [label=<REGION_RATING_CLIENT_W_CITY &le; 1.5<br/>gini = 0.404<br/>samples = 819<br/>value = [914, 358]>, fillcolor="#efb287"] ;
504 -> 505 ;
506 [label=<gini = 0.129<br/>samples = 119<br/>value = [175, 13]>, fillcolor="#e78a48"] ;
505 -> 506 ;
507 [label=<gini = 0.434<br/>samples = 700<br/>value = [739, 345]>, fillcolor="#f1bc95"] ;
505 -> 507 ;
508 [label=<AMT_INCOME_TOTAL &le; 49500.0<br/>gini = 0.25<br/>samples = 298<br/>value = [414, 71]>, fillcolor="#e9975b"] ;
504 -> 508 ;
509 [label=<gini = 0.153<br/>samples = 8<br/>value = [1, 11]>, fillcolor="#4ba6e7"] ;
508 -> 509 ;
510 [label=<gini = 0.222<br/>samples = 290<br/>value = [413, 60]>, fillcolor="#e99356"] ;
508 -> 510 ;
511 [label=<OBS_60_CNT_SOCIAL_CIRCLE &le; 3.5<br/>gini = 0.158<br/>samples = 164<br/>value = [254, 24]>, fillcolor="#e78d4c"] ;
503 -> 511 ;
512 [label=<FLAG_DOCUMENT_11 &le; 0.5<br/>gini = 0.062<br/>samples = 129<br/>value = [211, 7]>, fillcolor="#e68540"] ;
511 -> 512 ;
513 [label=<gini = 0.0<br/>samples = 122<br/>value = [208, 0]>, fillcolor="#e58139"] ;
512 -> 513 ;
514 [label=<gini = 0.42<br/>samples = 7<br/>value = [3, 7]>, fillcolor="#8ec7f0"] ;
512 -> 514 ;
515 [label=<REGION_POPULATION_RELATIVE &le; 0.026<br/>gini = 0.406<br/>samples = 35<br/>value = [43, 17]>, fillcolor="#efb387"] ;
511 -> 515 ;
516 [label=<gini = 0.492<br/>samples = 23<br/>value = [22, 17]>, fillcolor="#f9e2d2"] ;
515 -> 516 ;
517 [label=<gini = 0.0<br/>samples = 12<br/>value = [21, 0]>, fillcolor="#e58139"] ;
515 -> 517 ;
518 [label=<FLAG_OWN_REALTY_Y &le; 0.5<br/>gini = 0.499<br/>samples = 4495<br/>value = [3404, 3778]>, fillcolor="#ebf5fc"] ;
480 -> 518 ;
519 [label=<REGION_RATING_CLIENT_W_CITY &le; 2.5<br/>gini = 0.493<br/>samples = 1693<br/>value = [1200, 1519]>, fillcolor="#d5eafa"] ;
518 -> 519 ;
520 [label=<FLAG_DOCUMENT_3 &le; 0.5<br/>gini = 0.497<br/>samples = 1500<br/>value = [1115, 1303]>, fillcolor="#e2f1fb"] ;
519 -> 520 ;
521 [label=<NAME_HOUSING_TYPE_With parents &le; 0.5<br/>gini = 0.489<br/>samples = 328<br/>value = [315.0, 234.0]>, fillcolor="#f8dfcc"] ;
520 -> 521 ;
522 [label=<WEEKDAY_APPR_PROCESS_START_THURSDAY &le; 0.5<br/>gini = 0.468<br/>samples = 261<br/>value = [271, 162]>, fillcolor="#f5ccaf"] ;
521 -> 522 ;
523 [label=<gini = 0.405<br/>samples = 202<br/>value = [237, 93]>, fillcolor="#efb287"] ;
522 -> 523 ;
524 [label=<gini = 0.442<br/>samples = 59<br/>value = [34, 69]>, fillcolor="#9bcdf2"] ;
522 -> 524 ;
525 [label=<HOUR_APPR_PROCESS_START &le; 10.5<br/>gini = 0.471<br/>samples = 67<br/>value = [44, 72]>, fillcolor="#b2d9f5"] ;
521 -> 525 ;
526 [label=<gini = 0.231<br/>samples = 25<br/>value = [6, 39]>, fillcolor="#57ace9"] ;
525 -> 526 ;
527 [label=<gini = 0.498<br/>samples = 42<br/>value = [38, 33]>, fillcolor="#fceee5"] ;
525 -> 527 ;
528 [label=<DAYS_LAST_PHONE_CHANGE &le; -2178.0<br/>gini = 0.49<br/>samples = 1172<br/>value = [800, 1069]>, fillcolor="#cde6f8"] ;
520 -> 528 ;
529 [label=<DAYS_ID_PUBLISH &le; -4222.5<br/>gini = 0.379<br/>samples = 75<br/>value = [94, 32]>, fillcolor="#eeac7c"] ;
528 -> 529 ;
530 [label=<gini = 0.485<br/>samples = 22<br/>value = [19.0, 27.0]>, fillcolor="#c4e2f7"] ;
529 -> 530 ;
531 [label=<gini = 0.117<br/>samples = 53<br/>value = [75, 5]>, fillcolor="#e78946"] ;
529 -> 531 ;
532 [label=<FLAG_PHONE &le; 0.5<br/>gini = 0.482<br/>samples = 1097<br/>value = [706, 1037]>, fillcolor="#c0e0f7"] ;
528 -> 532 ;
533 [label=<gini = 0.465<br/>samples = 878<br/>value = [515, 884]>, fillcolor="#acd6f4"] ;
532 -> 533 ;
534 [label=<gini = 0.494<br/>samples = 219<br/>value = [191, 153]>, fillcolor="#fae6d8"] ;
532 -> 534 ;
535 [label=<AMT_INCOME_TOTAL &le; 261000.0<br/>gini = 0.405<br/>samples = 193<br/>value = [85, 216]>, fillcolor="#87c4ef"] ;
519 -> 535 ;
536 [label=<SK_ID_CURR &le; 140563.5<br/>gini = 0.375<br/>samples = 186<br/>value = [72, 216]>, fillcolor="#7bbeee"] ;
535 -> 536 ;
537 [label=<gini = 0.0<br/>samples = 4<br/>value = [5, 0]>, fillcolor="#e58139"] ;
536 -> 537 ;
538 [label=<NAME_EDUCATION_TYPE_Lower secondary &le; 0.5<br/>gini = 0.361<br/>samples = 182<br/>value = [67, 216]>, fillcolor="#76bbed"] ;
536 -> 538 ;
539 [label=<gini = 0.337<br/>samples = 178<br/>value = [59, 216]>, fillcolor="#6fb8ec"] ;
538 -> 539 ;
540 [label=<gini = 0.0<br/>samples = 4<br/>value = [8, 0]>, fillcolor="#e58139"] ;
538 -> 540 ;
541 [label=<gini = 0.0<br/>samples = 7<br/>value = [13, 0]>, fillcolor="#e58139"] ;
535 -> 541 ;
542 [label=<REGION_RATING_CLIENT &le; 1.5<br/>gini = 0.5<br/>samples = 2802<br/>value = [2204, 2259]>, fillcolor="#fafdfe"] ;
518 -> 542 ;
543 [label=<AMT_INCOME_TOTAL &le; 236250.0<br/>gini = 0.463<br/>samples = 427<br/>value = [439.0, 251.0]>, fillcolor="#f4c9aa"] ;
542 -> 543 ;
544 [label=<LIVE_REGION_NOT_WORK_REGION &le; 0.5<br/>gini = 0.495<br/>samples = 334<br/>value = [297.0, 242.0]>, fillcolor="#fae8da"] ;
543 -> 544 ;
545 [label=<EXT_SOURCE_3 &le; 0.475<br/>gini = 0.452<br/>samples = 240<br/>value = [249.0, 131.0]>, fillcolor="#f3c3a1"] ;
544 -> 545 ;
546 [label=<gini = 0.496<br/>samples = 83<br/>value = [58, 69]>, fillcolor="#dfeffb"] ;
545 -> 546 ;
547 [label=<gini = 0.37<br/>samples = 157<br/>value = [191, 62]>, fillcolor="#edaa79"] ;
545 -> 547 ;
548 [label=<DAYS_REGISTRATION &le; -4441.5<br/>gini = 0.422<br/>samples = 94<br/>value = [48, 111]>, fillcolor="#8fc7f0"] ;
544 -> 548 ;
549 [label=<gini = 0.266<br/>samples = 59<br/>value = [15, 80]>, fillcolor="#5eafea"] ;
548 -> 549 ;
550 [label=<gini = 0.5<br/>samples = 35<br/>value = [33, 31]>, fillcolor="#fdf7f3"] ;
548 -> 550 ;
551 [label=<CNT_FAM_MEMBERS &le; 3.5<br/>gini = 0.112<br/>samples = 93<br/>value = [142, 9]>, fillcolor="#e78946"] ;
543 -> 551 ;
552 [label=<LIVE_REGION_NOT_WORK_REGION &le; 0.5<br/>gini = 0.045<br/>samples = 80<br/>value = [126, 3]>, fillcolor="#e6843e"] ;
551 -> 552 ;
553 [label=<gini = 0.0<br/>samples = 66<br/>value = [112, 0]>, fillcolor="#e58139"] ;
552 -> 553 ;
554 [label=<gini = 0.291<br/>samples = 14<br/>value = [14, 3]>, fillcolor="#eb9c63"] ;
552 -> 554 ;
555 [label=<EXT_SOURCE_2 &le; 0.735<br/>gini = 0.397<br/>samples = 13<br/>value = [16, 6]>, fillcolor="#efb083"] ;
551 -> 555 ;
556 [label=<gini = 0.0<br/>samples = 7<br/>value = [11, 0]>, fillcolor="#e58139"] ;
555 -> 556 ;
557 [label=<gini = 0.496<br/>samples = 6<br/>value = [5, 6]>, fillcolor="#deeffb"] ;
555 -> 557 ;
558 [label=<DAYS_EMPLOYED &le; -216.5<br/>gini = 0.498<br/>samples = 2375<br/>value = [1765.0, 2008.0]>, fillcolor="#e7f3fc"] ;
542 -> 558 ;
559 [label=<FLAG_DOCUMENT_5 &le; 0.5<br/>gini = 0.5<br/>samples = 1971<br/>value = [1539, 1591]>, fillcolor="#f9fcfe"] ;
558 -> 559 ;
560 [label=<HOUR_APPR_PROCESS_START &le; 6.5<br/>gini = 0.5<br/>samples = 1945<br/>value = [1502, 1585]>, fillcolor="#f5fafe"] ;
559 -> 560 ;
561 [label=<gini = 0.359<br/>samples = 123<br/>value = [41, 134]>, fillcolor="#76bbed"] ;
560 -> 561 ;
562 [label=<gini = 0.5<br/>samples = 1822<br/>value = [1461, 1451]>, fillcolor="#fffefe"] ;
560 -> 562 ;
563 [label=<CNT_FAM_MEMBERS &le; 2.5<br/>gini = 0.24<br/>samples = 26<br/>value = [37, 6]>, fillcolor="#e99559"] ;
559 -> 563 ;
564 [label=<gini = 0.312<br/>samples = 20<br/>value = [25, 6]>, fillcolor="#eb9f69"] ;
563 -> 564 ;
565 [label=<gini = 0.0<br/>samples = 6<br/>value = [12, 0]>, fillcolor="#e58139"] ;
563 -> 565 ;
566 [label=<OBS_60_CNT_SOCIAL_CIRCLE &le; 4.5<br/>gini = 0.456<br/>samples = 404<br/>value = [226.0, 417.0]>, fillcolor="#a4d2f3"] ;
558 -> 566 ;
567 [label=<EXT_SOURCE_2 &le; 0.734<br/>gini = 0.437<br/>samples = 379<br/>value = [196.0, 411.0]>, fillcolor="#97ccf1"] ;
566 -> 567 ;
568 [label=<gini = 0.428<br/>samples = 372<br/>value = [185, 411]>, fillcolor="#92c9f1"] ;
567 -> 568 ;
569 [label=<gini = 0.0<br/>samples = 7<br/>value = [11, 0]>, fillcolor="#e58139"] ;
567 -> 569 ;
570 [label=<SK_ID_CURR &le; 274560.0<br/>gini = 0.278<br/>samples = 25<br/>value = [30, 6]>, fillcolor="#ea9a61"] ;
566 -> 570 ;
571 [label=<gini = 0.432<br/>samples = 14<br/>value = [13, 6]>, fillcolor="#f1bb94"] ;
570 -> 571 ;
572 [label=<gini = 0.0<br/>samples = 11<br/>value = [17, 0]>, fillcolor="#e58139"] ;
570 -> 572 ;
573 [label=<EXT_SOURCE_3 &le; 0.315<br/>gini = 0.403<br/>samples = 20823<br/>value = [23811, 9275]>, fillcolor="#efb286"] ;
365 -> 573 ;
574 [label=<NAME_INCOME_TYPE_Commercial associate &le; 0.5<br/>gini = 0.5<br/>samples = 3885<br/>value = [3115.0, 3104.0]>, fillcolor="#fffffe"] ;
573 -> 574 ;
575 [label=<ORGANIZATION_TYPE_XNA &le; 0.5<br/>gini = 0.494<br/>samples = 1308<br/>value = [1147.0, 924.0]>, fillcolor="#fae7d9"] ;
574 -> 575 ;
576 [label=<REGION_POPULATION_RELATIVE &le; 0.016<br/>gini = 0.477<br/>samples = 737<br/>value = [710, 460]>, fillcolor="#f6d3b9"] ;
575 -> 576 ;
577 [label=<AMT_ANNUITY &le; 68267.25<br/>gini = 0.4<br/>samples = 255<br/>value = [309.0, 118.0]>, fillcolor="#efb185"] ;
576 -> 577 ;
578 [label=<AMT_INCOME_TOTAL &le; 114750.0<br/>gini = 0.366<br/>samples = 246<br/>value = [308, 98]>, fillcolor="#eda978"] ;
577 -> 578 ;
579 [label=<NAME_HOUSING_TYPE_Other &le; 0.5<br/>gini = 0.493<br/>samples = 53<br/>value = [46.0, 36.0]>, fillcolor="#f9e4d4"] ;
578 -> 579 ;
580 [label=<gini = 0.499<br/>samples = 49<br/>value = [40, 36]>, fillcolor="#fcf2eb"] ;
579 -> 580 ;
581 [label=<gini = 0.0<br/>samples = 4<br/>value = [6, 0]>, fillcolor="#e58139"] ;
579 -> 581 ;
582 [label=<EXT_SOURCE_3 &le; 0.139<br/>gini = 0.309<br/>samples = 193<br/>value = [262, 62]>, fillcolor="#eb9f68"] ;
578 -> 582 ;
583 [label=<gini = 0.495<br/>samples = 58<br/>value = [46.0, 38.0]>, fillcolor="#fae9dd"] ;
582 -> 583 ;
584 [label=<gini = 0.18<br/>samples = 135<br/>value = [216, 24]>, fillcolor="#e88f4f"] ;
582 -> 584 ;
585 [label=<SK_ID_CURR &le; 431308.0<br/>gini = 0.091<br/>samples = 9<br/>value = [1, 20]>, fillcolor="#43a2e6"] ;
577 -> 585 ;
586 [label=<gini = 0.0<br/>samples = 1<br/>value = [1, 0]>, fillcolor="#e58139"] ;
585 -> 586 ;
587 [label=<gini = 0.0<br/>samples = 8<br/>value = [0, 20]>, fillcolor="#399de5"] ;
585 -> 587 ;
588 [label=<AMT_GOODS_PRICE &le; 877500.0<br/>gini = 0.497<br/>samples = 482<br/>value = [401.0, 342.0]>, fillcolor="#fbece2"] ;
576 -> 588 ;
589 [label=<AMT_REQ_CREDIT_BUREAU_YEAR &le; 2.5<br/>gini = 0.5<br/>samples = 386<br/>value = [291, 301]>, fillcolor="#f8fcfe"] ;
588 -> 589 ;
590 [label=<DAYS_BIRTH &le; -21251.0<br/>gini = 0.49<br/>samples = 309<br/>value = [203, 269]>, fillcolor="#cee7f9"] ;
589 -> 590 ;
591 [label=<gini = 0.0<br/>samples = 8<br/>value = [14, 0]>, fillcolor="#e58139"] ;
590 -> 591 ;
592 [label=<gini = 0.485<br/>samples = 301<br/>value = [189, 269]>, fillcolor="#c4e2f7"] ;
590 -> 592 ;
593 [label=<EXT_SOURCE_2 &le; 0.604<br/>gini = 0.391<br/>samples = 77<br/>value = [88, 32]>, fillcolor="#eeaf81"] ;
589 -> 593 ;
594 [label=<gini = 0.5<br/>samples = 40<br/>value = [33, 32]>, fillcolor="#fefbf9"] ;
593 -> 594 ;
595 [label=<gini = 0.0<br/>samples = 37<br/>value = [55, 0]>, fillcolor="#e58139"] ;
593 -> 595 ;
596 [label=<SK_ID_CURR &le; 311240.0<br/>gini = 0.396<br/>samples = 96<br/>value = [110.0, 41.0]>, fillcolor="#efb083"] ;
588 -> 596 ;
597 [label=<gini = 0.0<br/>samples = 38<br/>value = [60, 0]>, fillcolor="#e58139"] ;
596 -> 597 ;
598 [label=<EXT_SOURCE_2 &le; 0.626<br/>gini = 0.495<br/>samples = 58<br/>value = [50.0, 41.0]>, fillcolor="#fae8db"] ;
596 -> 598 ;
599 [label=<gini = 0.408<br/>samples = 30<br/>value = [12, 30]>, fillcolor="#88c4ef"] ;
598 -> 599 ;
600 [label=<gini = 0.348<br/>samples = 28<br/>value = [38, 11]>, fillcolor="#eda572"] ;
598 -> 600 ;
601 [label=<OBS_30_CNT_SOCIAL_CIRCLE &le; 10.5<br/>gini = 0.5<br/>samples = 571<br/>value = [437.0, 464.0]>, fillcolor="#f3f9fd"] ;
575 -> 601 ;
602 [label=<CODE_GENDER &le; 0.5<br/>gini = 0.5<br/>samples = 560<br/>value = [433.0, 451.0]>, fillcolor="#f7fbfe"] ;
601 -> 602 ;
603 [label=<EXT_SOURCE_2 &le; 0.66<br/>gini = 0.496<br/>samples = 398<br/>value = [329.0, 275.0]>, fillcolor="#fbeadf"] ;
602 -> 603 ;
604 [label=<FLAG_OWN_REALTY_Y &le; 0.5<br/>gini = 0.496<br/>samples = 267<br/>value = [183, 218]>, fillcolor="#dfeffb"] ;
603 -> 604 ;
605 [label=<gini = 0.389<br/>samples = 98<br/>value = [38, 106]>, fillcolor="#80c0ee"] ;
604 -> 605 ;
606 [label=<gini = 0.492<br/>samples = 169<br/>value = [145, 112]>, fillcolor="#f9e2d2"] ;
604 -> 606 ;
607 [label=<FLAG_DOCUMENT_3 &le; 0.5<br/>gini = 0.404<br/>samples = 131<br/>value = [146, 57]>, fillcolor="#efb286"] ;
603 -> 607 ;
608 [label=<gini = 0.128<br/>samples = 54<br/>value = [81, 6]>, fillcolor="#e78a48"] ;
607 -> 608 ;
609 [label=<gini = 0.493<br/>samples = 77<br/>value = [65, 51]>, fillcolor="#f9e4d4"] ;
607 -> 609 ;
610 [label=<OBS_30_CNT_SOCIAL_CIRCLE &le; 1.5<br/>gini = 0.467<br/>samples = 162<br/>value = [104, 176]>, fillcolor="#aed7f4"] ;
602 -> 610 ;
611 [label=<REGION_RATING_CLIENT &le; 2.5<br/>gini = 0.441<br/>samples = 132<br/>value = [75, 153]>, fillcolor="#9acdf2"] ;
610 -> 611 ;
612 [label=<gini = 0.457<br/>samples = 115<br/>value = [71, 130]>, fillcolor="#a5d3f3"] ;
611 -> 612 ;
613 [label=<gini = 0.252<br/>samples = 17<br/>value = [4, 23]>, fillcolor="#5baeea"] ;
611 -> 613 ;
614 [label=<DAYS_REGISTRATION &le; -3402.5<br/>gini = 0.493<br/>samples = 30<br/>value = [29, 23]>, fillcolor="#fae5d6"] ;
610 -> 614 ;
615 [label=<gini = 0.0<br/>samples = 13<br/>value = [24, 0]>, fillcolor="#e58139"] ;
614 -> 615 ;
616 [label=<gini = 0.293<br/>samples = 17<br/>value = [5, 23]>, fillcolor="#64b2eb"] ;
614 -> 616 ;
617 [label=<NAME_FAMILY_STATUS_Married &le; 0.5<br/>gini = 0.36<br/>samples = 11<br/>value = [4, 13]>, fillcolor="#76bbed"] ;
601 -> 617 ;
618 [label=<gini = 0.0<br/>samples = 2<br/>value = [4, 0]>, fillcolor="#e58139"] ;
617 -> 618 ;
619 [label=<gini = 0.0<br/>samples = 9<br/>value = [0, 13]>, fillcolor="#399de5"] ;
617 -> 619 ;
620 [label=<OBS_60_CNT_SOCIAL_CIRCLE &le; 1.5<br/>gini = 0.499<br/>samples = 2577<br/>value = [1968, 2180]>, fillcolor="#ecf5fc"] ;
574 -> 620 ;
621 [label=<CNT_CHILDREN &le; 1.5<br/>gini = 0.5<br/>samples = 1809<br/>value = [1487, 1432]>, fillcolor="#fefaf8"] ;
620 -> 621 ;
622 [label=<AMT_INCOME_TOTAL &le; 164250.0<br/>gini = 0.498<br/>samples = 1589<br/>value = [1357, 1197]>, fillcolor="#fcf0e8"] ;
621 -> 622 ;
623 [label=<AMT_CREDIT &le; 146583.0<br/>gini = 0.488<br/>samples = 436<br/>value = [289, 395]>, fillcolor="#cae5f8"] ;
622 -> 623 ;
624 [label=<gini = 0.0<br/>samples = 19<br/>value = [27, 0]>, fillcolor="#e58139"] ;
623 -> 624 ;
625 [label=<DAYS_LAST_PHONE_CHANGE &le; -253.5<br/>gini = 0.48<br/>samples = 417<br/>value = [262, 395]>, fillcolor="#bcdef6"] ;
623 -> 625 ;
626 [label=<gini = 0.464<br/>samples = 361<br/>value = [208.0, 361.0]>, fillcolor="#abd5f4"] ;
625 -> 626 ;
627 [label=<gini = 0.474<br/>samples = 56<br/>value = [54, 34]>, fillcolor="#f5d0b6"] ;
625 -> 627 ;
628 [label=<DAYS_EMPLOYED &le; -3289.0<br/>gini = 0.49<br/>samples = 1153<br/>value = [1068, 802]>, fillcolor="#f9e0ce"] ;
622 -> 628 ;
629 [label=<FLAG_DOCUMENT_9 &le; 0.5<br/>gini = 0.333<br/>samples = 136<br/>value = [172, 46]>, fillcolor="#eca36e"] ;
628 -> 629 ;
630 [label=<gini = 0.295<br/>samples = 129<br/>value = [169, 37]>, fillcolor="#eb9d64"] ;
629 -> 630 ;
631 [label=<gini = 0.375<br/>samples = 7<br/>value = [3, 9]>, fillcolor="#7bbeee"] ;
629 -> 631 ;
632 [label=<AMT_ANNUITY &le; 15921.0<br/>gini = 0.496<br/>samples = 1017<br/>value = [896, 756]>, fillcolor="#fbebe0"] ;
628 -> 632 ;
633 [label=<gini = 0.301<br/>samples = 66<br/>value = [97, 22]>, fillcolor="#eb9e66"] ;
632 -> 633 ;
634 [label=<gini = 0.499<br/>samples = 951<br/>value = [799, 734]>, fillcolor="#fdf5ef"] ;
632 -> 634 ;
635 [label=<AMT_ANNUITY &le; 36074.25<br/>gini = 0.459<br/>samples = 220<br/>value = [130, 235]>, fillcolor="#a7d3f3"] ;
621 -> 635 ;
636 [label=<REG_REGION_NOT_WORK_REGION &le; 0.5<br/>gini = 0.401<br/>samples = 163<br/>value = [75, 195]>, fillcolor="#85c3ef"] ;
635 -> 636 ;
637 [label=<REGION_POPULATION_RELATIVE &le; 0.041<br/>gini = 0.425<br/>samples = 143<br/>value = [73, 165]>, fillcolor="#91c8f1"] ;
636 -> 637 ;
638 [label=<gini = 0.378<br/>samples = 135<br/>value = [56, 165]>, fillcolor="#7cbeee"] ;
637 -> 638 ;
639 [label=<gini = 0.0<br/>samples = 8<br/>value = [17, 0]>, fillcolor="#e58139"] ;
637 -> 639 ;
640 [label=<AMT_CREDIT &le; 734931.0<br/>gini = 0.117<br/>samples = 20<br/>value = [2, 30]>, fillcolor="#46a4e7"] ;
636 -> 640 ;
641 [label=<gini = 0.062<br/>samples = 19<br/>value = [1, 30]>, fillcolor="#40a0e6"] ;
640 -> 641 ;
642 [label=<gini = 0.0<br/>samples = 1<br/>value = [1, 0]>, fillcolor="#e58139"] ;
640 -> 642 ;
643 [label=<LIVE_CITY_NOT_WORK_CITY &le; 0.5<br/>gini = 0.488<br/>samples = 57<br/>value = [55, 40]>, fillcolor="#f8ddc9"] ;
635 -> 643 ;
644 [label=<AMT_GOODS_PRICE &le; 616500.0<br/>gini = 0.495<br/>samples = 48<br/>value = [33, 40]>, fillcolor="#dceefa"] ;
643 -> 644 ;
645 [label=<gini = 0.0<br/>samples = 6<br/>value = [9, 0]>, fillcolor="#e58139"] ;
644 -> 645 ;
646 [label=<gini = 0.469<br/>samples = 42<br/>value = [24, 40]>, fillcolor="#b0d8f5"] ;
644 -> 646 ;
647 [label=<gini = 0.0<br/>samples = 9<br/>value = [22, 0]>, fillcolor="#e58139"] ;
643 -> 647 ;
648 [label=<FLAG_OWN_REALTY_Y &le; 0.5<br/>gini = 0.476<br/>samples = 768<br/>value = [481, 748]>, fillcolor="#b8dcf6"] ;
620 -> 648 ;
649 [label=<AMT_CREDIT &le; 444870.0<br/>gini = 0.497<br/>samples = 234<br/>value = [195, 167]>, fillcolor="#fbede3"] ;
648 -> 649 ;
650 [label=<FLAG_OWN_CAR &le; 0.5<br/>gini = 0.348<br/>samples = 42<br/>value = [52, 15]>, fillcolor="#eca572"] ;
649 -> 650 ;
651 [label=<AMT_INCOME_TOTAL &le; 159750.0<br/>gini = 0.473<br/>samples = 27<br/>value = [24, 15]>, fillcolor="#f5d0b5"] ;
650 -> 651 ;
652 [label=<gini = 0.469<br/>samples = 16<br/>value = [9, 15]>, fillcolor="#b0d8f5"] ;
651 -> 652 ;
653 [label=<gini = 0.0<br/>samples = 11<br/>value = [15, 0]>, fillcolor="#e58139"] ;
651 -> 653 ;
654 [label=<gini = 0.0<br/>samples = 15<br/>value = [28, 0]>, fillcolor="#e58139"] ;
650 -> 654 ;
655 [label=<DEF_60_CNT_SOCIAL_CIRCLE &le; 0.5<br/>gini = 0.5<br/>samples = 192<br/>value = [143, 152]>, fillcolor="#f3f9fd"] ;
649 -> 655 ;
656 [label=<EXT_SOURCE_3 &le; 0.288<br/>gini = 0.481<br/>samples = 132<br/>value = [120.0, 81.0]>, fillcolor="#f7d6bf"] ;
655 -> 656 ;
657 [label=<gini = 0.497<br/>samples = 117<br/>value = [94, 81]>, fillcolor="#fbeee4"] ;
656 -> 657 ;
658 [label=<gini = 0.0<br/>samples = 15<br/>value = [26, 0]>, fillcolor="#e58139"] ;
656 -> 658 ;
659 [label=<AMT_REQ_CREDIT_BUREAU_QRT &le; 1.5<br/>gini = 0.37<br/>samples = 60<br/>value = [23, 71]>, fillcolor="#79bded"] ;
655 -> 659 ;
660 [label=<gini = 0.352<br/>samples = 59<br/>value = [21, 71]>, fillcolor="#74baed"] ;
659 -> 660 ;
661 [label=<gini = 0.0<br/>samples = 1<br/>value = [2, 0]>, fillcolor="#e58139"] ;
659 -> 661 ;
662 [label=<AMT_ANNUITY &le; 66768.75<br/>gini = 0.442<br/>samples = 534<br/>value = [286, 581]>, fillcolor="#9acdf2"] ;
648 -> 662 ;
663 [label=<AMT_GOODS_PRICE &le; 137250.0<br/>gini = 0.434<br/>samples = 524<br/>value = [272, 581]>, fillcolor="#96cbf1"] ;
662 -> 663 ;
664 [label=<gini = 0.0<br/>samples = 8<br/>value = [11, 0]>, fillcolor="#e58139"] ;
663 -> 664 ;
665 [label=<LIVE_CITY_NOT_WORK_CITY &le; 0.5<br/>gini = 0.428<br/>samples = 516<br/>value = [261, 581]>, fillcolor="#92c9f1"] ;
663 -> 665 ;
666 [label=<gini = 0.415<br/>samples = 453<br/>value = [219.0, 527.0]>, fillcolor="#8bc6f0"] ;
665 -> 666 ;
667 [label=<gini = 0.492<br/>samples = 63<br/>value = [42, 54]>, fillcolor="#d3e9f9"] ;
665 -> 667 ;
668 [label=<gini = 0.0<br/>samples = 10<br/>value = [14, 0]>, fillcolor="#e58139"] ;
662 -> 668 ;
669 [label=<NAME_CONTRACT_TYPE_Revolving loans &le; 0.5<br/>gini = 0.354<br/>samples = 16938<br/>value = [20696, 6171]>, fillcolor="#eda774"] ;
573 -> 669 ;
670 [label=<CODE_GENDER &le; 0.5<br/>gini = 0.368<br/>samples = 14904<br/>value = [17896, 5762]>, fillcolor="#edaa79"] ;
669 -> 670 ;
671 [label=<AMT_ANNUITY &le; 28185.75<br/>gini = 0.343<br/>samples = 10074<br/>value = [12453, 3508]>, fillcolor="#eca471"] ;
670 -> 671 ;
672 [label=<FLAG_DOCUMENT_3 &le; 0.5<br/>gini = 0.311<br/>samples = 4432<br/>value = [5654, 1349]>, fillcolor="#eb9f68"] ;
671 -> 672 ;
673 [label=<EXT_SOURCE_2 &le; 0.566<br/>gini = 0.216<br/>samples = 1081<br/>value = [1513, 213]>, fillcolor="#e99355"] ;
672 -> 673 ;
674 [label=<SK_ID_CURR &le; 307914.5<br/>gini = 0.333<br/>samples = 207<br/>value = [251.0, 67.0]>, fillcolor="#eca36e"] ;
673 -> 674 ;
675 [label=<gini = 0.154<br/>samples = 100<br/>value = [152.0, 14.0]>, fillcolor="#e78d4b"] ;
674 -> 675 ;
676 [label=<gini = 0.454<br/>samples = 107<br/>value = [99.0, 53.0]>, fillcolor="#f3c4a3"] ;
674 -> 676 ;
677 [label=<AMT_REQ_CREDIT_BUREAU_QRT &le; 1.5<br/>gini = 0.186<br/>samples = 874<br/>value = [1262, 146]>, fillcolor="#e89050"] ;
673 -> 677 ;
678 [label=<gini = 0.155<br/>samples = 808<br/>value = [1196, 111]>, fillcolor="#e78d4b"] ;
677 -> 678 ;
679 [label=<gini = 0.453<br/>samples = 66<br/>value = [66, 35]>, fillcolor="#f3c4a2"] ;
677 -> 679 ;
680 [label=<FLAG_DOCUMENT_14 &le; 0.5<br/>gini = 0.338<br/>samples = 3351<br/>value = [4141, 1136]>, fillcolor="#eca46f"] ;
672 -> 680 ;
681 [label=<DAYS_EMPLOYED &le; -908.5<br/>gini = 0.34<br/>samples = 3330<br/>value = [4103, 1136]>, fillcolor="#eca470"] ;
680 -> 681 ;
682 [label=<gini = 0.291<br/>samples = 2532<br/>value = [3300, 709]>, fillcolor="#eb9c64"] ;
681 -> 682 ;
683 [label=<gini = 0.453<br/>samples = 798<br/>value = [803, 427]>, fillcolor="#f3c4a2"] ;
681 -> 683 ;
684 [label=<gini = 0.0<br/>samples = 21<br/>value = [38, 0]>, fillcolor="#e58139"] ;
680 -> 684 ;
685 [label=<EXT_SOURCE_3 &le; 0.565<br/>gini = 0.366<br/>samples = 5642<br/>value = [6799, 2159]>, fillcolor="#eda978"] ;
671 -> 685 ;
686 [label=<AMT_ANNUITY &le; 84928.5<br/>gini = 0.415<br/>samples = 3232<br/>value = [3605, 1499]>, fillcolor="#f0b58b"] ;
685 -> 686 ;
687 [label=<AMT_ANNUITY &le; 82869.75<br/>gini = 0.419<br/>samples = 3169<br/>value = [3514, 1493]>, fillcolor="#f0b78d"] ;
686 -> 687 ;
688 [label=<gini = 0.416<br/>samples = 3152<br/>value = [3512.0, 1467.0]>, fillcolor="#f0b68c"] ;
687 -> 688 ;
689 [label=<gini = 0.133<br/>samples = 17<br/>value = [2, 26]>, fillcolor="#48a5e7"] ;
687 -> 689 ;
690 [label=<AMT_CREDIT &le; 1878408.0<br/>gini = 0.116<br/>samples = 63<br/>value = [91, 6]>, fillcolor="#e78946"] ;
686 -> 690 ;
691 [label=<gini = 0.0<br/>samples = 43<br/>value = [68, 0]>, fillcolor="#e58139"] ;
690 -> 691 ;
692 [label=<gini = 0.328<br/>samples = 20<br/>value = [23, 6]>, fillcolor="#eca26d"] ;
690 -> 692 ;
693 [label=<FLAG_DOCUMENT_11 &le; 0.5<br/>gini = 0.284<br/>samples = 2410<br/>value = [3194, 660]>, fillcolor="#ea9b62"] ;
685 -> 693 ;
694 [label=<FLAG_OWN_CAR &le; 0.5<br/>gini = 0.281<br/>samples = 2388<br/>value = [3172, 645]>, fillcolor="#ea9b61"] ;
693 -> 694 ;
695 [label=<gini = 0.316<br/>samples = 1588<br/>value = [2047, 502]>, fillcolor="#eba06a"] ;
694 -> 695 ;
696 [label=<gini = 0.2<br/>samples = 800<br/>value = [1125, 143]>, fillcolor="#e89152"] ;
694 -> 696 ;
697 [label=<AMT_CREDIT &le; 1762110.0<br/>gini = 0.482<br/>samples = 22<br/>value = [22, 15]>, fillcolor="#f7d7c0"] ;
693 -> 697 ;
698 [label=<gini = 0.0<br/>samples = 9<br/>value = [14, 0]>, fillcolor="#e58139"] ;
697 -> 698 ;
699 [label=<gini = 0.454<br/>samples = 13<br/>value = [8, 15]>, fillcolor="#a3d1f3"] ;
697 -> 699 ;
700 [label=<DEF_60_CNT_SOCIAL_CIRCLE &le; 2.5<br/>gini = 0.414<br/>samples = 4830<br/>value = [5443, 2254]>, fillcolor="#f0b58b"] ;
670 -> 700 ;
701 [label=<AMT_INCOME_TOTAL &le; 294750.0<br/>gini = 0.41<br/>samples = 4795<br/>value = [5439, 2203]>, fillcolor="#f0b489"] ;
700 -> 701 ;
702 [label=<CNT_FAM_MEMBERS &le; 1.5<br/>gini = 0.431<br/>samples = 3555<br/>value = [3872, 1774]>, fillcolor="#f1bb94"] ;
701 -> 702 ;
703 [label=<REGION_POPULATION_RELATIVE &le; 0.005<br/>gini = 0.486<br/>samples = 717<br/>value = [676, 485]>, fillcolor="#f8dbc7"] ;
702 -> 703 ;
704 [label=<gini = 0.464<br/>samples = 94<br/>value = [55.0, 95.0]>, fillcolor="#acd6f4"] ;
703 -> 704 ;
705 [label=<gini = 0.474<br/>samples = 623<br/>value = [621, 390]>, fillcolor="#f5d0b5"] ;
703 -> 705 ;
706 [label=<REGION_RATING_CLIENT &le; 1.5<br/>gini = 0.41<br/>samples = 2838<br/>value = [3196.0, 1289.0]>, fillcolor="#efb489"] ;
702 -> 706 ;
707 [label=<gini = 0.319<br/>samples = 419<br/>value = [550, 137]>, fillcolor="#eba06a"] ;
706 -> 707 ;
708 [label=<gini = 0.423<br/>samples = 2419<br/>value = [2646, 1152]>, fillcolor="#f0b88f"] ;
706 -> 708 ;
709 [label=<REG_REGION_NOT_LIVE_REGION &le; 0.5<br/>gini = 0.337<br/>samples = 1240<br/>value = [1567, 429]>, fillcolor="#eca36f"] ;
701 -> 709 ;
710 [label=<DAYS_REGISTRATION &le; -16.0<br/>gini = 0.322<br/>samples = 1169<br/>value = [1500, 378]>, fillcolor="#eca16b"] ;
709 -> 710 ;
711 [label=<gini = 0.312<br/>samples = 1152<br/>value = [1495, 358]>, fillcolor="#eb9f68"] ;
710 -> 711 ;
712 [label=<gini = 0.32<br/>samples = 17<br/>value = [5, 20]>, fillcolor="#6ab6ec"] ;
710 -> 712 ;
713 [label=<SK_ID_CURR &le; 236878.0<br/>gini = 0.491<br/>samples = 71<br/>value = [67, 51]>, fillcolor="#f9e1d0"] ;
709 -> 713 ;
714 [label=<gini = 0.43<br/>samples = 37<br/>value = [21, 46]>, fillcolor="#93caf1"] ;
713 -> 714 ;
715 [label=<gini = 0.177<br/>samples = 34<br/>value = [46, 5]>, fillcolor="#e88f4f"] ;
713 -> 715 ;
716 [label=<FLAG_WORK_PHONE &le; 0.5<br/>gini = 0.135<br/>samples = 35<br/>value = [4, 51]>, fillcolor="#49a5e7"] ;
700 -> 716 ;
717 [label=<DAYS_ID_PUBLISH &le; -2987.5<br/>gini = 0.105<br/>samples = 34<br/>value = [3, 51]>, fillcolor="#45a3e7"] ;
716 -> 717 ;
718 [label=<gini = 0.0<br/>samples = 2<br/>value = [3, 0]>, fillcolor="#e58139"] ;
717 -> 718 ;
719 [label=<gini = 0.0<br/>samples = 32<br/>value = [0, 51]>, fillcolor="#399de5"] ;
717 -> 719 ;
720 [label=<gini = 0.0<br/>samples = 1<br/>value = [1, 0]>, fillcolor="#e58139"] ;
716 -> 720 ;
721 [label=<DAYS_REGISTRATION &le; -75.5<br/>gini = 0.222<br/>samples = 2034<br/>value = [2800, 409]>, fillcolor="#e99356"] ;
669 -> 721 ;
722 [label=<EXT_SOURCE_3 &le; 0.425<br/>gini = 0.213<br/>samples = 1996<br/>value = [2764, 381]>, fillcolor="#e99254"] ;
721 -> 722 ;
723 [label=<EXT_SOURCE_3 &le; 0.324<br/>gini = 0.395<br/>samples = 296<br/>value = [336, 125]>, fillcolor="#efb083"] ;
722 -> 723 ;
724 [label=<HOUR_APPR_PROCESS_START &le; 13.5<br/>gini = 0.474<br/>samples = 30<br/>value = [17, 27]>, fillcolor="#b6dbf5"] ;
723 -> 724 ;
725 [label=<CODE_GENDER &le; 0.5<br/>gini = 0.375<br/>samples = 25<br/>value = [9, 27]>, fillcolor="#7bbeee"] ;
724 -> 725 ;
726 [label=<gini = 0.0<br/>samples = 8<br/>value = [9, 0]>, fillcolor="#e58139"] ;
725 -> 726 ;
727 [label=<gini = 0.0<br/>samples = 17<br/>value = [0, 27]>, fillcolor="#399de5"] ;
725 -> 727 ;
728 [label=<gini = 0.0<br/>samples = 5<br/>value = [8, 0]>, fillcolor="#e58139"] ;
724 -> 728 ;
729 [label=<AMT_GOODS_PRICE &le; 607500.0<br/>gini = 0.36<br/>samples = 266<br/>value = [319, 98]>, fillcolor="#eda876"] ;
723 -> 729 ;
730 [label=<AMT_CREDIT &le; 562500.0<br/>gini = 0.408<br/>samples = 217<br/>value = [245, 98]>, fillcolor="#efb388"] ;
729 -> 730 ;
731 [label=<gini = 0.369<br/>samples = 197<br/>value = [239, 77]>, fillcolor="#edaa79"] ;
730 -> 731 ;
732 [label=<gini = 0.346<br/>samples = 20<br/>value = [6, 21]>, fillcolor="#72b9ec"] ;
730 -> 732 ;
733 [label=<gini = 0.0<br/>samples = 49<br/>value = [74, 0]>, fillcolor="#e58139"] ;
729 -> 733 ;
734 [label=<AMT_ANNUITY &le; 10687.5<br/>gini = 0.173<br/>samples = 1700<br/>value = [2428, 256]>, fillcolor="#e88e4e"] ;
722 -> 734 ;
735 [label=<NAME_FAMILY_STATUS_Married &le; 0.5<br/>gini = 0.351<br/>samples = 377<br/>value = [477, 140]>, fillcolor="#eda673"] ;
734 -> 735 ;
736 [label=<WEEKDAY_APPR_PROCESS_START_MONDAY &le; 0.5<br/>gini = 0.463<br/>samples = 161<br/>value = [166, 95]>, fillcolor="#f4c9aa"] ;
735 -> 736 ;
737 [label=<gini = 0.485<br/>samples = 141<br/>value = [135, 95]>, fillcolor="#f7dac4"] ;
736 -> 737 ;
738 [label=<gini = 0.0<br/>samples = 20<br/>value = [31, 0]>, fillcolor="#e58139"] ;
736 -> 738 ;
739 [label=<AMT_REQ_CREDIT_BUREAU_MON &le; 1.5<br/>gini = 0.221<br/>samples = 216<br/>value = [311, 45]>, fillcolor="#e99356"] ;
735 -> 739 ;
740 [label=<gini = 0.164<br/>samples = 202<br/>value = [303, 30]>, fillcolor="#e88d4d"] ;
739 -> 740 ;
741 [label=<gini = 0.454<br/>samples = 14<br/>value = [8, 15]>, fillcolor="#a3d1f3"] ;
739 -> 741 ;
742 [label=<EXT_SOURCE_2 &le; 0.715<br/>gini = 0.106<br/>samples = 1323<br/>value = [1951, 116]>, fillcolor="#e78845"] ;
734 -> 742 ;
743 [label=<EXT_SOURCE_3 &le; 0.622<br/>gini = 0.146<br/>samples = 929<br/>value = [1328.0, 114.0]>, fillcolor="#e78c4a"] ;
742 -> 743 ;
744 [label=<gini = 0.212<br/>samples = 576<br/>value = [780, 107]>, fillcolor="#e99254"] ;
743 -> 744 ;
745 [label=<gini = 0.025<br/>samples = 353<br/>value = [548, 7]>, fillcolor="#e5833c"] ;
743 -> 745 ;
746 [label=<DAYS_REGISTRATION &le; -610.5<br/>gini = 0.006<br/>samples = 394<br/>value = [623, 2]>, fillcolor="#e5813a"] ;
742 -> 746 ;
747 [label=<gini = 0.0<br/>samples = 359<br/>value = [570, 0]>, fillcolor="#e58139"] ;
746 -> 747 ;
748 [label=<gini = 0.07<br/>samples = 35<br/>value = [53, 2]>, fillcolor="#e68640"] ;
746 -> 748 ;
749 [label=<SK_ID_CURR &le; 132910.5<br/>gini = 0.492<br/>samples = 38<br/>value = [36, 28]>, fillcolor="#f9e3d3"] ;
721 -> 749 ;
750 [label=<SK_ID_CURR &le; 119972.0<br/>gini = 0.208<br/>samples = 9<br/>value = [2, 15]>, fillcolor="#53aae8"] ;
749 -> 750 ;
751 [label=<gini = 0.0<br/>samples = 2<br/>value = [2, 0]>, fillcolor="#e58139"] ;
750 -> 751 ;
752 [label=<gini = 0.0<br/>samples = 7<br/>value = [0, 15]>, fillcolor="#399de5"] ;
750 -> 752 ;
753 [label=<CNT_FAM_MEMBERS &le; 1.5<br/>gini = 0.4<br/>samples = 29<br/>value = [34, 13]>, fillcolor="#efb185"] ;
749 -> 753 ;
754 [label=<HOUR_APPR_PROCESS_START &le; 11.5<br/>gini = 0.472<br/>samples = 11<br/>value = [8, 13]>, fillcolor="#b3d9f5"] ;
753 -> 754 ;
755 [label=<DAYS_BIRTH &le; -17016.5<br/>gini = 0.133<br/>samples = 8<br/>value = [1, 13]>, fillcolor="#48a5e7"] ;
754 -> 755 ;
756 [label=<gini = 0.0<br/>samples = 7<br/>value = [0, 13]>, fillcolor="#399de5"] ;
755 -> 756 ;
757 [label=<gini = 0.0<br/>samples = 1<br/>value = [1, 0]>, fillcolor="#e58139"] ;
755 -> 757 ;
758 [label=<gini = 0.0<br/>samples = 3<br/>value = [7, 0]>, fillcolor="#e58139"] ;
754 -> 758 ;
759 [label=<gini = 0.0<br/>samples = 18<br/>value = [26, 0]>, fillcolor="#e58139"] ;
753 -> 759 ;
760 [label=<DAYS_BIRTH &le; -14334.5<br/>gini = 0.495<br/>samples = 160182<br/>value = [114593, 138983]>, fillcolor="#dceefa"] ;
0 -> 760 [labeldistance=2.5, labelangle=-45, headlabel="False"] ;
761 [label=<NAME_CONTRACT_TYPE_Revolving loans &le; 0.5<br/>gini = 0.5<br/>samples = 76051<br/>value = [61014.0, 59131.0]>, fillcolor="#fefbf9"] ;
760 -> 761 ;
762 [label=<NAME_HOUSING_TYPE_With parents &le; 0.5<br/>gini = 0.5<br/>samples = 70488<br/>value = [55481, 55908]>, fillcolor="#fdfeff"] ;
761 -> 762 ;
763 [label=<REGION_RATING_CLIENT_W_CITY &le; 2.5<br/>gini = 0.5<br/>samples = 69063<br/>value = [54673, 54451]>, fillcolor="#fffefe"] ;
762 -> 763 ;
764 [label=<ORGANIZATION_TYPE_Other &le; 0.5<br/>gini = 0.499<br/>samples = 57623<br/>value = [47256, 43766]>, fillcolor="#fdf6f0"] ;
763 -> 764 ;
765 [label=<REGION_RATING_CLIENT_W_CITY &le; 1.5<br/>gini = 0.5<br/>samples = 24746<br/>value = [19061.0, 20253.0]>, fillcolor="#f3f9fd"] ;
764 -> 765 ;
766 [label=<FLAG_PHONE &le; 0.5<br/>gini = 0.478<br/>samples = 1744<br/>value = [1667, 1092]>, fillcolor="#f6d4bb"] ;
765 -> 766 ;
767 [label=<AMT_REQ_CREDIT_BUREAU_MON &le; 1.5<br/>gini = 0.492<br/>samples = 1087<br/>value = [962.0, 748.0]>, fillcolor="#f9e3d3"] ;
766 -> 767 ;
768 [label=<DAYS_BIRTH &le; -22327.5<br/>gini = 0.495<br/>samples = 1059<br/>value = [918.0, 748.0]>, fillcolor="#fae8da"] ;
767 -> 768 ;
769 [label=<gini = 0.0<br/>samples = 21<br/>value = [32, 0]>, fillcolor="#e58139"] ;
768 -> 769 ;
770 [label=<gini = 0.496<br/>samples = 1038<br/>value = [886, 748]>, fillcolor="#fbebe0"] ;
768 -> 770 ;
771 [label=<gini = 0.0<br/>samples = 28<br/>value = [44, 0]>, fillcolor="#e58139"] ;
767 -> 771 ;
772 [label=<DAYS_BIRTH &le; -14713.0<br/>gini = 0.441<br/>samples = 657<br/>value = [705.0, 344.0]>, fillcolor="#f2be9a"] ;
766 -> 772 ;
773 [label=<NAME_EDUCATION_TYPE_Secondary / secondary special &le; 0.5<br/>gini = 0.426<br/>samples = 601<br/>value = [671, 298]>, fillcolor="#f1b991"] ;
772 -> 773 ;
774 [label=<gini = 0.35<br/>samples = 187<br/>value = [240, 70]>, fillcolor="#eda673"] ;
773 -> 774 ;
775 [label=<gini = 0.453<br/>samples = 414<br/>value = [431.0, 228.0]>, fillcolor="#f3c4a2"] ;
773 -> 775 ;
776 [label=<SK_ID_CURR &le; 378611.5<br/>gini = 0.489<br/>samples = 56<br/>value = [34, 46]>, fillcolor="#cbe5f8"] ;
772 -> 776 ;
777 [label=<gini = 0.451<br/>samples = 49<br/>value = [24, 46]>, fillcolor="#a0d0f3"] ;
776 -> 777 ;
778 [label=<gini = 0.0<br/>samples = 7<br/>value = [10, 0]>, fillcolor="#e58139"] ;
776 -> 778 ;
779 [label=<FLAG_OWN_CAR &le; 0.5<br/>gini = 0.499<br/>samples = 23002<br/>value = [17394, 19161]>, fillcolor="#edf6fd"] ;
765 -> 779 ;
780 [label=<CODE_GENDER &le; 0.5<br/>gini = 0.495<br/>samples = 15024<br/>value = [10709.0, 13060.0]>, fillcolor="#dbedfa"] ;
779 -> 780 ;
781 [label=<AMT_REQ_CREDIT_BUREAU_YEAR &le; 1.5<br/>gini = 0.5<br/>samples = 10354<br/>value = [8207, 8132]>, fillcolor="#fffefd"] ;
780 -> 781 ;
782 [label=<gini = 0.498<br/>samples = 5278<br/>value = [4439, 3924]>, fillcolor="#fcf0e8"] ;
781 -> 782 ;
783 [label=<gini = 0.498<br/>samples = 5076<br/>value = [3768, 4208]>, fillcolor="#eaf5fc"] ;
781 -> 783 ;
784 [label=<HOUR_APPR_PROCESS_START &le; 16.5<br/>gini = 0.447<br/>samples = 4670<br/>value = [2502, 4928]>, fillcolor="#9ecff2"] ;
780 -> 784 ;
785 [label=<gini = 0.438<br/>samples = 4282<br/>value = [2213, 4610]>, fillcolor="#98ccf1"] ;
784 -> 785 ;
786 [label=<gini = 0.499<br/>samples = 388<br/>value = [289, 318]>, fillcolor="#edf6fd"] ;
784 -> 786 ;
787 [label=<DAYS_REGISTRATION &le; -2151.5<br/>gini = 0.499<br/>samples = 7978<br/>value = [6685, 6101]>, fillcolor="#fdf4ee"] ;
779 -> 787 ;
788 [label=<NAME_HOUSING_TYPE_Other &le; 0.5<br/>gini = 0.495<br/>samples = 5680<br/>value = [5034, 4085]>, fillcolor="#fae7da"] ;
787 -> 788 ;
789 [label=<gini = 0.493<br/>samples = 5408<br/>value = [4846, 3810]>, fillcolor="#f9e4d5"] ;
788 -> 789 ;
790 [label=<gini = 0.482<br/>samples = 272<br/>value = [188, 275]>, fillcolor="#c0e0f7"] ;
788 -> 790 ;
791 [label=<EXT_SOURCE_2 &le; 0.515<br/>gini = 0.495<br/>samples = 2298<br/>value = [1651, 2016]>, fillcolor="#dbedfa"] ;
787 -> 791 ;
792 [label=<gini = 0.436<br/>samples = 1119<br/>value = [587, 1242]>, fillcolor="#97cbf1"] ;
791 -> 792 ;
793 [label=<gini = 0.488<br/>samples = 1179<br/>value = [1064, 774]>, fillcolor="#f8ddc9"] ;
791 -> 793 ;
794 [label=<EXT_SOURCE_3 &le; 0.54<br/>gini = 0.496<br/>samples = 32877<br/>value = [28195.0, 23513.0]>, fillcolor="#fbeade"] ;
764 -> 794 ;
795 [label=<NAME_EDUCATION_TYPE_Higher education &le; 0.5<br/>gini = 0.497<br/>samples = 20883<br/>value = [15101, 17828]>, fillcolor="#e1f0fb"] ;
794 -> 795 ;
796 [label=<CODE_GENDER &le; 0.5<br/>gini = 0.493<br/>samples = 17609<br/>value = [12221, 15539]>, fillcolor="#d5eaf9"] ;
795 -> 796 ;
797 [label=<EXT_SOURCE_2 &le; 0.389<br/>gini = 0.499<br/>samples = 10410<br/>value = [7893, 8508]>, fillcolor="#f1f8fd"] ;
796 -> 797 ;
798 [label=<gini = 0.453<br/>samples = 3150<br/>value = [1728.0, 3248.0]>, fillcolor="#a2d1f3"] ;
797 -> 798 ;
799 [label=<gini = 0.497<br/>samples = 7260<br/>value = [6165, 5260]>, fillcolor="#fbede2"] ;
797 -> 799 ;
800 [label=<AMT_ANNUITY &le; 44646.75<br/>gini = 0.472<br/>samples = 7199<br/>value = [4328.0, 7031.0]>, fillcolor="#b3d9f5"] ;
796 -> 800 ;
801 [label=<gini = 0.464<br/>samples = 6650<br/>value = [3836.0, 6656.0]>, fillcolor="#abd5f4"] ;
800 -> 801 ;
802 [label=<gini = 0.491<br/>samples = 549<br/>value = [492.0, 375.0]>, fillcolor="#f9e1d0"] ;
800 -> 802 ;
803 [label=<FLAG_DOCUMENT_11 &le; 0.5<br/>gini = 0.493<br/>samples = 3274<br/>value = [2880.0, 2289.0]>, fillcolor="#fae5d6"] ;
795 -> 803 ;
804 [label=<EXT_SOURCE_2 &le; 0.422<br/>gini = 0.493<br/>samples = 3260<br/>value = [2877, 2273]>, fillcolor="#fae5d5"] ;
803 -> 804 ;
805 [label=<gini = 0.457<br/>samples = 805<br/>value = [441.0, 804.0]>, fillcolor="#a6d3f3"] ;
804 -> 805 ;
806 [label=<gini = 0.469<br/>samples = 2455<br/>value = [2436, 1469]>, fillcolor="#f5cdb0"] ;
804 -> 806 ;
807 [label=<DAYS_EMPLOYED &le; -1160.5<br/>gini = 0.266<br/>samples = 14<br/>value = [3, 16]>, fillcolor="#5eafea"] ;
803 -> 807 ;
808 [label=<gini = 0.0<br/>samples = 11<br/>value = [0, 16]>, fillcolor="#399de5"] ;
807 -> 808 ;
809 [label=<gini = 0.0<br/>samples = 3<br/>value = [3, 0]>, fillcolor="#e58139"] ;
807 -> 809 ;
810 [label=<DAYS_EMPLOYED &le; -2451.0<br/>gini = 0.422<br/>samples = 11994<br/>value = [13094, 5685]>, fillcolor="#f0b88f"] ;
794 -> 810 ;
811 [label=<WEEKDAY_APPR_PROCESS_START_WEDNESDAY &le; 0.5<br/>gini = 0.367<br/>samples = 6093<br/>value = [7185, 2298]>, fillcolor="#eda978"] ;
810 -> 811 ;
812 [label=<NAME_EDUCATION_TYPE_Lower secondary &le; 0.5<br/>gini = 0.356<br/>samples = 4963<br/>value = [5913, 1783]>, fillcolor="#eda775"] ;
811 -> 812 ;
813 [label=<gini = 0.351<br/>samples = 4910<br/>value = [5884, 1726]>, fillcolor="#eda673"] ;
812 -> 813 ;
814 [label=<gini = 0.447<br/>samples = 53<br/>value = [29.0, 57.0]>, fillcolor="#9ecff2"] ;
812 -> 814 ;
815 [label=<EXT_SOURCE_2 &le; 0.531<br/>gini = 0.41<br/>samples = 1130<br/>value = [1272, 515]>, fillcolor="#f0b489"] ;
811 -> 815 ;
816 [label=<gini = 0.487<br/>samples = 450<br/>value = [400, 288]>, fillcolor="#f8dcc8"] ;
815 -> 816 ;
817 [label=<gini = 0.328<br/>samples = 680<br/>value = [872, 227]>, fillcolor="#eca26d"] ;
815 -> 817 ;
818 [label=<DAYS_LAST_PHONE_CHANGE &le; -798.5<br/>gini = 0.463<br/>samples = 5901<br/>value = [5909.0, 3387.0]>, fillcolor="#f4c9aa"] ;
810 -> 818 ;
819 [label=<HOUR_APPR_PROCESS_START &le; 15.5<br/>gini = 0.425<br/>samples = 2917<br/>value = [3152, 1389]>, fillcolor="#f0b990"] ;
818 -> 819 ;
820 [label=<gini = 0.436<br/>samples = 2498<br/>value = [2639, 1247]>, fillcolor="#f1bd97"] ;
819 -> 820 ;
821 [label=<gini = 0.34<br/>samples = 419<br/>value = [513, 142]>, fillcolor="#eca470"] ;
819 -> 821 ;
822 [label=<FLAG_EMAIL &le; 0.5<br/>gini = 0.487<br/>samples = 2984<br/>value = [2757, 1998]>, fillcolor="#f8dcc8"] ;
818 -> 822 ;
823 [label=<gini = 0.489<br/>samples = 2915<br/>value = [2673, 1974]>, fillcolor="#f8decb"] ;
822 -> 823 ;
824 [label=<gini = 0.346<br/>samples = 69<br/>value = [84, 24]>, fillcolor="#eca572"] ;
822 -> 824 ;
825 [label=<DAYS_BIRTH &le; -19368.5<br/>gini = 0.484<br/>samples = 11440<br/>value = [7417, 10685]>, fillcolor="#c2e1f7"] ;
763 -> 825 ;
826 [label=<CNT_CHILDREN &le; 1.5<br/>gini = 0.5<br/>samples = 2359<br/>value = [1830, 1900]>, fillcolor="#f8fbfe"] ;
825 -> 826 ;
827 [label=<NAME_TYPE_SUITE_Family &le; 0.5<br/>gini = 0.5<br/>samples = 2344<br/>value = [1805.0, 1900.0]>, fillcolor="#f5fafe"] ;
826 -> 827 ;
828 [label=<HOUR_APPR_PROCESS_START &le; 11.5<br/>gini = 0.498<br/>samples = 2147<br/>value = [1586, 1811]>, fillcolor="#e6f3fc"] ;
827 -> 828 ;
829 [label=<FLAG_DOCUMENT_3 &le; 0.5<br/>gini = 0.493<br/>samples = 1494<br/>value = [1043, 1322]>, fillcolor="#d5eafa"] ;
828 -> 829 ;
830 [label=<gini = 0.488<br/>samples = 169<br/>value = [152.0, 111.0]>, fillcolor="#f8ddca"] ;
829 -> 830 ;
831 [label=<gini = 0.488<br/>samples = 1325<br/>value = [891, 1211]>, fillcolor="#cbe5f8"] ;
829 -> 831 ;
832 [label=<AMT_REQ_CREDIT_BUREAU_MON &le; 5.0<br/>gini = 0.499<br/>samples = 653<br/>value = [543, 489]>, fillcolor="#fcf2eb"] ;
828 -> 832 ;
